{"learner":{"attributes":{"best_iteration":"299","best_score":"0.09569247814288843","scikit_learn":"{\"_estimator_type\": \"classifier\"}"},"feature_names":["t_td_spread_lag","wind_speed_mph_lag","drct_sin_lag","drct_cos_lag","elevation","hour_sin","hour_cos","month_sin","month_cos","station_code"],"feature_types":["float","float","float","float","float","float","float","float","float","int"],"gradient_booster":{"model":{"gbtree_model_param":{"num_parallel_tree":"1","num_trees":"300"},"iteration_indptr":[0,1,2,3,4,5,6,7,8,9,10,11,12,13,14,15,16,17,18,19,20,21,22,23,24,25,26,27,28,29,30,31,32,33,34,35,36,37,38,39,40,41,42,43,44,45,46,47,48,49,50,51,52,53,54,55,56,57,58,59,60,61,62,63,64,65,66,67,68,69,70,71,72,73,74,75,76,77,78,79,80,81,82,83,84,85,86,87,88,89,90,91,92,93,94,95,96,97,98,99,100,101,102,103,104,105,106,107,108,109,110,111,112,113,114,115,116,117,118,119,120,121,122,123,124,125,126,127,128,129,130,131,132,133,134,135,136,137,138,139,140,141,142,143,144,145,146,147,148,149,150,151,152,153,154,155,156,157,158,159,160,161,162,163,164,165,166,167,168,169,170,171,172,173,174,175,176,177,178,179,180,181,182,183,184,185,186,187,188,189,190,191,192,193,194,195,196,197,198,199,200,201,202,203,204,205,206,207,208,209,210,211,212,213,214,215,216,217,218,219,220,221,222,223,224,225,226,227,228,229,230,231,232,233,234,235,236,237,238,239,240,241,242,243,244,245,246,247,248,249,250,251,252,253,254,255,256,257,258,259,260,261,262,263,264,265,266,267,268,269,270,271,272,273,274,275,276,277,278,279,280,281,282,283,284,285,286,287,288,289,290,291,292,293,294,295,296,297,298,299,300],"tree_info":[0,0,0,0,0,0,0,0,0,0,0,0,0,0,0,0,0,0,0,0,0,0,0,0,0,0,0,0,0,0,0,0,0,0,0,0,0,0,0,0,0,0,0,0,0,0,0,0,0,0,0,0,0,0,0,0,0,0,0,0,0,0,0,0,0,0,0,0,0,0,0,0,0,0,0,0,0,0,0,0,0,0,0,0,0,0,0,0,0,0,0,0,0,0,0,0,0,0,0,0,0,0,0,0,0,0,0,0,0,0,0,0,0,0,0,0,0,0,0,0,0,0,0,0,0,0,0,0,0,0,0,0,0,0,0,0,0,0,0,0,0,0,0,0,0,0,0,0,0,0,0,0,0,0,0,0,0,0,0,0,0,0,0,0,0,0,0,0,0,0,0,0,0,0,0,0,0,0,0,0,0,0,0,0,0,0,0,0,0,0,0,0,0,0,0,0,0,0,0,0,0,0,0,0,0,0,0,0,0,0,0,0,0,0,0,0,0,0,0,0,0,0,0,0,0,0,0,0,0,0,0,0,0,0,0,0,0,0,0,0,0,0,0,0,0,0,0,0,0,0,0,0,0,0,0,0,0,0,0,0,0,0,0,0,0,0,0,0,0,0,0,0,0,0,0,0,0,0,0,0,0,0,0,0,0,0,0,0,0,0,0,0,0,0,0,0,0,0,0,0],"trees":[{"base_weights":[9.8283035E-9,4.4919744E-1,-6.519285E-1,6.541652E-1,-8.1643677E-1,-1.0520515E0,-4.8031062E-2,-1.3132988E-1,9.541464E-1,-4.2933238E-1,-1.4164833E0,-1.5001632E0,-5.747911E-1,8.3622116E-1,-7.329886E-1,-1.1043254E0,3.6454743E-1,1.1764466E0,5.5167854E-1,2.134681E-1,-7.388135E-1,-1.1616762E0,-1.599456E0,-1.6238385E0,-7.687666E-1,-6.273429E-2,-1.0380963E0,1.1291865E0,4.4901326E-1,-3.6398342E-1,-1.3337317E0,-6.044508E-2,5.3100284E-2,4.0556293E-2,-2.3316681E-2,6.3835956E-2,3.6945473E-2,4.9863502E-2,1.5219981E-2,-6.4953946E-2,1.7687133E-2,-4.5143925E-2,-4.4433377E-3,-3.481674E-2,-6.709106E-2,-8.631609E-2,-7.204019E-2,-8.5525066E-2,-7.110565E-2,-2.5744163E-3,-5.6015264E-2,-1.7493308E-2,3.6795363E-2,-6.2820226E-2,-1.158517E-2,6.1178178E-2,2.7691294E-2,5.2820693E-4,4.1057955E-2,-4.4053815E-2,2.0194154E-3,-5.257113E-2,-7.8323096E-2],"categories":[],"categories_nodes":[],"categories_segments":[],"categories_sizes":[],"default_left":[0,0,0,0,0,0,0,0,0,0,0,0,0,0,0,0,0,0,0,0,0,0,0,0,0,0,0,0,0,0,0,0,0,0,0,0,0,0,0,0,0,0,0,0,0,0,0,0,0,0,0,0,0,0,0,0,0,0,0,0,0,0,0],"id":0,"left_children":[1,3,5,7,9,11,13,15,17,19,21,23,25,27,29,31,33,35,37,39,41,43,45,47,49,51,53,55,57,59,61,-1,-1,-1,-1,-1,-1,-1,-1,-1,-1,-1,-1,-1,-1,-1,-1,-1,-1,-1,-1,-1,-1,-1,-1,-1,-1,-1,-1,-1,-1,-1,-1],"loss_changes":[4.398584E6,2.30692E6,1.480583E6,1.803388E6,2.8789975E5,7.88203E5,1.4789966E6,1.0204948E6,4.95502E5,1.4987955E5,2.2658812E4,1.719365E5,4.2340106E5,1.2091175E5,3.050303E5,1.6176212E5,5.198634E5,1.565245E5,2.1712994E5,5.1950914E4,5.422947E4,1.7028719E4,5.6914375E3,2.8421E4,6.9323266E4,1.9440281E5,1.6494338E5,3.2948188E4,7.4910125E4,1.7823884E5,3.4399562E4,0E0,0E0,0E0,0E0,0E0,0E0,0E0,0E0,0E0,0E0,0E0,0E0,0E0,0E0,0E0,0E0,0E0,0E0,0E0,0E0,0E0,0E0,0E0,0E0,0E0,0E0,0E0,0E0,0E0,0E0,0E0,0E0],"parents":[2147483647,0,0,1,1,2,2,3,3,4,4,5,5,6,6,7,7,8,8,9,9,10,10,11,11,12,12,13,13,14,14,15,15,16,16,17,17,18,18,19,19,20,20,21,21,22,22,23,23,24,24,25,25,26,26,27,27,28,28,29,29,30,30],"right_children":[2,4,6,8,10,12,14,16,18,20,22,24,26,28,30,32,34,36,38,40,42,44,46,48,50,52,54,56,58,60,62,-1,-1,-1,-1,-1,-1,-1,-1,-1,-1,-1,-1,-1,-1,-1,-1,-1,-1,-1,-1,-1,-1,-1,-1,-1,-1,-1,-1,-1,-1,-1,-1],"split_conditions":[-1.8369701E-16,2E1,7.0710677E-1,-2.5881904E-1,2.9E1,5E-1,7.8E0,6.123234E-17,9.4E0,-5E-1,3.5E1,4.86E2,3.2E0,3.2E0,1.89E1,1.156E3,5.2E0,9.20624E0,-5E-1,-2.5881904E-1,4.0944E2,-5E-1,-1.8369701E-16,-1.8369701E-16,3.6E0,3.61E2,4.0944E2,1.0287973E1,9.659258E-1,9.659258E-1,2.4E1,-6.044508E-2,5.3100284E-2,4.0556293E-2,-2.3316681E-2,6.3835956E-2,3.6945473E-2,4.9863502E-2,1.5219981E-2,-6.4953946E-2,1.7687133E-2,-4.5143925E-2,-4.4433377E-3,-3.481674E-2,-6.709106E-2,-8.631609E-2,-7.204019E-2,-8.5525066E-2,-7.110565E-2,-2.5744163E-3,-5.6015264E-2,-1.7493308E-2,3.6795363E-2,-6.2820226E-2,-1.158517E-2,6.1178178E-2,2.7691294E-2,5.2820693E-4,4.1057955E-2,-4.4053815E-2,2.0194154E-3,-5.257113E-2,-7.8323096E-2],"split_indices":[6,0,5,5,0,8,0,8,0,7,0,4,0,0,0,4,0,1,7,5,4,7,8,8,0,4,4,1,5,5,0,0,0,0,0,0,0,0,0,0,0,0,0,0,0,0,0,0,0,0,0,0,0,0,0,0,0,0,0,0,0,0,0],"split_type":[0,0,0,0,0,0,0,0,0,0,0,0,0,0,0,0,0,0,0,0,0,0,0,0,0,0,0,0,0,0,0,0,0,0,0,0,0,0,0,0,0,0,0,0,0,0,0,0,0,0,0,0,0,0,0,0,0,0,0,0,0,0,0],"sum_hessian":[1.5020196E7,8.892801E6,6.127395E6,7.6533515E6,1.2394496E6,3.6855E6,2.441895E6,2.1150728E6,5.538279E6,7.534091E5,4.8604053E5,1.9007946E6,1.7847054E6,1.0658831E6,1.3760118E6,7.1402775E5,1.401045E6,3.5676898E6,1.9705891E6,2.4484986E5,5.0855928E5,2.031466E5,2.8289394E5,1.6258679E6,2.7492678E5,8.4775075E5,9.369547E5,6.06783E5,4.5910012E5,8.524176E5,5.2359416E5,6.8114694E5,3.288084E4,9.1126325E5,4.8978178E5,2.9025055E6,6.651841E5,7.032837E5,1.2673055E6,2.0779646E4,2.2407022E5,4.060583E5,1.0250097E5,5.6696324E4,1.4645027E5,1.5718858E5,1.2570537E5,1.1372775E6,4.8859034E5,9.042503E4,1.8450175E5,6.235642E5,2.2418656E5,7.3734006E5,1.9961464E5,5.2127638E5,8.550666E4,2.1077428E5,2.4832586E5,3.7407094E5,4.7834672E5,2.3659844E5,2.8699572E5],"tree_param":{"num_deleted":"0","num_feature":"10","num_nodes":"63","size_leaf_vector":"1"}},{"base_weights":[-3.3720394E-6,4.2701465E-1,-6.198628E-1,6.218539E-1,-7.761847E-1,-1.0004772E0,-4.5657862E-2,-1.24831095E-1,9.070571E-1,-4.0800416E-1,-1.3474597E0,-1.4273273E0,-5.463221E-1,6.2207085E-1,-8.7209177E-1,-1.0500746E0,3.464324E-1,1.1518312E0,5.731352E-1,2.028257E-1,-7.0216537E-1,-1.1632688E0,-1.5791775E0,-1.551064E0,-7.609321E-1,-5.960548E-2,-9.869806E-1,9.9307674E-1,1.5781134E-1,-5.43679E-1,-1.330842E0,-5.747622E-2,5.0481528E-2,3.8544603E-2,-2.215392E-2,6.1387666E-2,3.28861E-2,-2.5027497E-3,3.611104E-2,-6.177264E-2,1.680412E-2,-4.2908974E-2,-4.221199E-3,-3.795958E-2,-6.597423E-2,-8.4287055E-2,-7.199299E-2,-8.1666365E-2,-6.7976795E-2,-1.8799081E-2,-6.454939E-2,-1.3576944E-2,4.5897912E-2,-5.9296507E-2,-9.260007E-3,5.5806946E-2,2.5743742E-2,-1.5434119E-2,2.7502498E-2,-5.2206486E-2,-8.57287E-3,-5.5846345E-2,-7.7215455E-2],"categories":[],"categories_nodes":[],"categories_segments":[],"categories_sizes":[],"default_left":[0,0,0,0,0,0,0,0,0,0,0,0,0,0,0,0,0,0,0,0,0,0,0,0,0,0,0,0,0,0,0,0,0,0,0,0,0,0,0,0,0,0,0,0,0,0,0,0,0,0,0,0,0,0,0,0,0,0,0,0,0,0,0],"id":1,"left_children":[1,3,5,7,9,11,13,15,17,19,21,23,25,27,29,31,33,35,37,39,41,43,45,47,49,51,53,55,57,59,61,-1,-1,-1,-1,-1,-1,-1,-1,-1,-1,-1,-1,-1,-1,-1,-1,-1,-1,-1,-1,-1,-1,-1,-1,-1,-1,-1,-1,-1,-1,-1,-1],"loss_changes":[3.9728675E6,2.0834166E6,1.338034E6,1.628817E6,2.6051006E5,7.1373975E5,1.3467518E6,9.2176975E5,4.523715E5,1.3533039E5,2.0715312E4,1.5649975E5,3.8259238E5,2.3250428E5,1.6431462E5,1.4612862E5,4.6936462E5,1.19803E5,2.1749875E5,4.692103E4,4.899311E4,1.7070062E4,3.1889375E3,2.521825E4,6.064725E4,1.7561047E5,1.4934019E5,4.4152562E4,1.0970937E5,1.1840136E5,2.0776562E4,0E0,0E0,0E0,0E0,0E0,0E0,0E0,0E0,0E0,0E0,0E0,0E0,0E0,0E0,0E0,0E0,0E0,0E0,0E0,0E0,0E0,0E0,0E0,0E0,0E0,0E0,0E0,0E0,0E0,0E0,0E0,0E0],"parents":[2147483647,0,0,1,1,2,2,3,3,4,4,5,5,6,6,7,7,8,8,9,9,10,10,11,11,12,12,13,13,14,14,15,15,16,16,17,17,18,18,19,19,20,20,21,21,22,22,23,23,24,24,25,25,26,26,27,27,28,28,29,29,30,30],"right_children":[2,4,6,8,10,12,14,16,18,20,22,24,26,28,30,32,34,36,38,40,42,44,46,48,50,52,54,56,58,60,62,-1,-1,-1,-1,-1,-1,-1,-1,-1,-1,-1,-1,-1,-1,-1,-1,-1,-1,-1,-1,-1,-1,-1,-1,-1,-1,-1,-1,-1,-1,-1,-1],"split_conditions":[-1.8369701E-16,2E1,7.0710677E-1,-2.5881904E-1,2.9E1,5E-1,1.1E1,6.123234E-17,8.1E0,-5E-1,3.8E1,4.62E2,3.2E0,4.3E0,2E1,1.156E3,5.2E0,1.035702E1,2.5881904E-1,-2.5881904E-1,4.0944E2,-5E-1,-1.8369701E-16,-1.8369701E-16,8.1E0,4.86E2,4.56E2,9.20624E0,9.659258E-1,9.659258E-1,2.59E1,-5.747622E-2,5.0481528E-2,3.8544603E-2,-2.215392E-2,6.1387666E-2,3.28861E-2,-2.5027497E-3,3.611104E-2,-6.177264E-2,1.680412E-2,-4.2908974E-2,-4.221199E-3,-3.795958E-2,-6.597423E-2,-8.4287055E-2,-7.199299E-2,-8.1666365E-2,-6.7976795E-2,-1.8799081E-2,-6.454939E-2,-1.3576944E-2,4.5897912E-2,-5.9296507E-2,-9.260007E-3,5.5806946E-2,2.5743742E-2,-1.5434119E-2,2.7502498E-2,-5.2206486E-2,-8.57287E-3,-5.5846345E-2,-7.7215455E-2],"split_indices":[6,0,5,5,0,8,0,8,0,7,0,4,0,0,0,4,0,1,5,5,4,7,8,8,0,4,4,1,5,5,0,0,0,0,0,0,0,0,0,0,0,0,0,0,0,0,0,0,0,0,0,0,0,0,0,0,0,0,0,0,0,0,0],"split_type":[0,0,0,0,0,0,0,0,0,0,0,0,0,0,0,0,0,0,0,0,0,0,0,0,0,0,0,0,0,0,0,0,0,0,0,0,0,0,0,0,0,0,0,0,0,0,0,0,0,0,0,0,0,0,0,0,0,0,0,0,0,0,0],"sum_hessian":[1.5009444E7,8.887139E6,6.122305E6,7.648573E6,1.2385656E6,3.6818038E6,2.4405015E6,2.1139868E6,5.5345865E6,7.531624E5,4.8540328E5,1.8979556E6,1.7838481E6,1.349862E6,1.0906395E6,7.133828E5,1.4006038E6,3.193592E6,2.3409945E6,2.4481044E5,5.0835194E5,2.7043916E5,2.1496414E5,1.6007296E6,2.9722603E5,8.476271E5,9.36221E5,7.502834E5,5.995786E5,6.356144E5,4.5502506E5,6.805251E5,3.2857676E4,9.108886E5,4.897152E5,2.7682378E6,4.2535422E5,4.5192206E5,1.8890725E6,2.0757744E4,2.2405269E5,4.058515E5,1.0250045E5,7.540297E4,1.9503617E5,1.2179355E5,9.31706E4,1.11977E6,4.8095966E5,1.7218161E5,1.2504441E5,6.966055E5,1.5102164E5,7.5009575E5,1.8612523E5,5.9672E5,1.535634E5,2.7386644E5,3.257122E5,2.711083E5,3.645061E5,2.2727706E5,2.2774798E5],"tree_param":{"num_deleted":"0","num_feature":"10","num_nodes":"63","size_leaf_vector":"1"}},{"base_weights":[-1.6363758E-5,4.063888E-1,-5.9027636E-1,6.1E-1,-6.422018E-1,-9.5319045E-1,-4.3452013E-2,-1.0528379E-1,8.892399E-1,-2.140759E-1,-1.1440165E0,-1.3617681E0,-5.1971596E-1,5.9172946E-1,-8.301348E-1,-9.9375033E-1,3.4366524E-1,1.0220585E0,3.97927E-1,3.920562E-1,-5.245687E-1,-8.705444E-1,-1.4123987E0,-1.4196332E0,-2.9048482E-2,-5.6640495E-2,-9.397424E-1,9.414124E-1,1.4484009E-1,-5.169321E-1,-1.2688041E0,-5.4464456E-2,5.0424077E-2,3.6660586E-2,-2.0056011E-2,3.4075692E-2,5.8252957E-2,3.321327E-2,1.1906142E-3,-5.583122E-2,2.5566235E-2,-6.49249E-2,-1.975403E-2,-2.5380973E-2,-5.7769265E-2,-7.7244624E-2,-6.2660985E-2,-7.4374214E-2,-5.051164E-2,5.3721387E-2,-3.2126274E-2,-1.5943766E-2,3.367237E-2,-5.6933697E-2,-1.0376005E-2,5.2001316E-2,1.9217994E-2,-1.5031057E-2,2.5959332E-2,-4.9690254E-2,-8.144523E-3,-5.518247E-2,-7.637968E-2],"categories":[],"categories_nodes":[],"categories_segments":[],"categories_sizes":[],"default_left":[0,0,0,0,0,0,0,0,0,0,0,0,0,0,0,0,0,0,0,0,0,0,0,0,0,0,0,0,0,0,0,0,0,0,0,0,0,0,0,0,0,0,0,0,0,0,0,0,0,0,0,0,0,0,0,0,0,0,0,0,0,0,0],"id":2,"left_children":[1,3,5,7,9,11,13,15,17,19,21,23,25,27,29,31,33,35,37,39,41,43,45,47,49,51,53,55,57,59,61,-1,-1,-1,-1,-1,-1,-1,-1,-1,-1,-1,-1,-1,-1,-1,-1,-1,-1,-1,-1,-1,-1,-1,-1,-1,-1,-1,-1,-1,-1,-1,-1],"loss_changes":[3.593464E6,1.894142E6,1.2121945E6,1.4838582E6,3.09918E5,6.50264E5,1.217603E6,8.320269E5,3.48671E5,1.46501E5,4.8742125E4,1.4575725E5,3.4651044E5,2.1068031E5,1.4955769E5,1.3394519E5,4.0203575E5,2.04829E5,1.1329781E5,4.7447164E4,5.1585047E4,3.4004344E4,7.0670625E3,5.031675E4,5.324365E4,1.6222597E5,1.3607381E5,4.15485E4,9.869255E4,1.0722567E5,1.9378875E4,0E0,0E0,0E0,0E0,0E0,0E0,0E0,0E0,0E0,0E0,0E0,0E0,0E0,0E0,0E0,0E0,0E0,0E0,0E0,0E0,0E0,0E0,0E0,0E0,0E0,0E0,0E0,0E0,0E0,0E0,0E0,0E0],"parents":[2147483647,0,0,1,1,2,2,3,3,4,4,5,5,6,6,7,7,8,8,9,9,10,10,11,11,12,12,13,13,14,14,15,15,16,16,17,17,18,18,19,19,20,20,21,21,22,22,23,23,24,24,25,25,26,26,27,27,28,28,29,29,30,30],"right_children":[2,4,6,8,10,12,14,16,18,20,22,24,26,28,30,32,34,36,38,40,42,44,46,48,50,52,54,56,58,60,62,-1,-1,-1,-1,-1,-1,-1,-1,-1,-1,-1,-1,-1,-1,-1,-1,-1,-1,-1,-1,-1,-1,-1,-1,-1,-1,-1,-1,-1,-1,-1,-1],"split_conditions":[-1.8369701E-16,1.81E1,7.0710677E-1,-2.5881904E-1,2.59E1,5E-1,1.1E1,6.123234E-17,9.20624E0,-5E-1,3.3E1,1.156E3,3.2E0,4.6E0,2E1,1.156E3,5.2E0,2.5881904E-1,9.4E0,-2.5881904E-1,-2.5881904E-1,-2.4492937E-16,-1.8369701E-16,4.05E2,1.236E3,3.61E2,4.0944E2,1.035702E1,9.659258E-1,9.659258E-1,2.8E1,-5.4464456E-2,5.0424077E-2,3.6660586E-2,-2.0056011E-2,3.4075692E-2,5.8252957E-2,3.321327E-2,1.1906142E-3,-5.583122E-2,2.5566235E-2,-6.49249E-2,-1.975403E-2,-2.5380973E-2,-5.7769265E-2,-7.7244624E-2,-6.2660985E-2,-7.4374214E-2,-5.051164E-2,5.3721387E-2,-3.2126274E-2,-1.5943766E-2,3.367237E-2,-5.6933697E-2,-1.0376005E-2,5.2001316E-2,1.9217994E-2,-1.5031057E-2,2.5959332E-2,-4.9690254E-2,-8.144523E-3,-5.518247E-2,-7.637968E-2],"split_indices":[6,0,5,5,0,8,0,8,1,7,0,4,0,0,0,4,0,5,0,5,5,7,8,4,4,4,4,1,5,5,0,0,0,0,0,0,0,0,0,0,0,0,0,0,0,0,0,0,0,0,0,0,0,0,0,0,0,0,0,0,0,0,0],"split_type":[0,0,0,0,0,0,0,0,0,0,0,0,0,0,0,0,0,0,0,0,0,0,0,0,0,0,0,0,0,0,0,0,0,0,0,0,0,0,0,0,0,0,0,0,0,0,0,0,0,0,0,0,0,0,0,0,0,0,0,0,0,0,0],"sum_hessian":[1.4979961E7,8.871657E6,6.108303E6,7.4291035E6,1.4425538E6,3.6715702E6,2.436733E6,2.0859255E6,5.343178E6,7.784319E5,6.641219E5,1.8900624E6,1.7815079E6,1.348185E6,1.088548E6,7.0021144E5,1.385714E6,4.2061195E6,1.1370584E6,2.636819E5,5.1474997E5,3.2894375E5,3.351781E5,1.811413E6,7.864941E4,8.4733244E5,9.341755E5,7.56352E5,5.91833E5,6.350995E5,4.5344847E5,6.683222E5,3.1889295E4,9.0983925E5,4.7587478E5,1.2438931E6,2.9622268E6,6.642016E5,4.7285678E5,1.931753E4,2.4436439E5,7.377854E4,4.4097144E5,1.4464708E5,1.8429669E5,1.8291722E5,1.5226089E5,1.5538811E6,2.5753184E5,2.8101602E4,5.05478E4,6.234137E5,2.2391875E5,7.34598E5,1.995775E5,6.4259394E5,1.1375808E5,2.7024716E5,3.2158588E5,2.7060662E5,3.6449284E5,2.7680306E5,1.7664542E5],"tree_param":{"num_deleted":"0","num_feature":"10","num_nodes":"63","size_leaf_vector":"1"}},{"base_weights":[-3.6470137E-5,3.8710314E-1,-5.628442E-1,5.8106226E-1,-6.1173326E-1,-9.095623E-1,-4.1395538E-2,-2.9204127E-1,7.931011E-1,-2.0357534E-1,-1.0918398E0,-1.3752352E0,-5.593817E-1,7.249787E-1,-6.3519275E-1,-1.0867928E0,2.7183986E-1,1.0062523E0,4.9981338E-1,3.7283012E-1,-4.9881113E-1,-8.2908446E-1,-1.3507599E0,-1.4555792E0,-9.170843E-1,-1.05568E-1,-9.422969E-1,9.81785E-1,3.8696054E-1,-2.5122726E-1,-1.0766623E0,-5.9438296E-2,4.3851037E-2,3.1532902E-2,-2.5569562E-2,3.3061154E-2,5.703305E-2,-5.021073E-3,3.541606E-2,-4.0345814E-2,2.5564602E-2,-3.280084E-2,6.9263787E-3,-2.413114E-2,-5.5090267E-2,-6.1303552E-2,-7.579141E-2,-7.501263E-2,-5.6933977E-2,-1.7094178E-2,-5.9568744E-2,-1.5657848E-2,4.178585E-2,-5.6287438E-2,-5.844742E-3,5.519796E-2,3.20578E-2,2.1588212E-5,3.5786893E-2,-3.513413E-2,5.3948164E-3,-4.2299356E-2,-6.821429E-2],"categories":[],"categories_nodes":[],"categories_segments":[],"categories_sizes":[],"default_left":[0,0,0,0,0,0,0,0,0,0,0,0,0,0,0,0,0,0,0,0,0,0,0,0,0,0,0,0,0,0,0,0,0,0,0,0,0,0,0,0,0,0,0,0,0,0,0,0,0,0,0,0,0,0,0,0,0,0,0,0,0,0,0],"id":3,"left_children":[1,3,5,7,9,11,13,15,17,19,21,23,25,27,29,31,33,35,37,39,41,43,45,47,49,51,53,55,57,59,61,-1,-1,-1,-1,-1,-1,-1,-1,-1,-1,-1,-1,-1,-1,-1,-1,-1,-1,-1,-1,-1,-1,-1,-1,-1,-1,-1,-1,-1,-1,-1,-1],"loss_changes":[3.2541565E6,1.714257E6,1.1004414E6,1.3717685E6,2.8195594E5,5.96156E5,1.1061949E6,6.48855E5,3.7270025E5,1.3234558E5,4.4978812E4,5.775875E4,3.626073E5,9.211725E4,2.3216262E5,1.20338125E5,2.3802534E5,1.6011325E5,3.140388E5,4.302958E4,5.1527812E4,3.1005312E4,6.8520625E3,1.88985E4,3.6937594E4,1.8659534E5,1.7137069E5,2.50955E4,5.82236E4,1.1876196E5,4.2269062E4,0E0,0E0,0E0,0E0,0E0,0E0,0E0,0E0,0E0,0E0,0E0,0E0,0E0,0E0,0E0,0E0,0E0,0E0,0E0,0E0,0E0,0E0,0E0,0E0,0E0,0E0,0E0,0E0,0E0,0E0,0E0,0E0],"parents":[2147483647,0,0,1,1,2,2,3,3,4,4,5,5,6,6,7,7,8,8,9,9,10,10,11,11,12,12,13,13,14,14,15,15,16,16,17,17,18,18,19,19,20,20,21,21,22,22,23,23,24,24,25,25,26,26,27,27,28,28,29,29,30,30],"right_children":[2,4,6,8,10,12,14,16,18,20,22,24,26,28,30,32,34,36,38,40,42,44,46,48,50,52,54,56,58,60,62,-1,-1,-1,-1,-1,-1,-1,-1,-1,-1,-1,-1,-1,-1,-1,-1,-1,-1,-1,-1,-1,-1,-1,-1,-1,-1,-1,-1,-1,-1,-1,-1],"split_conditions":[-1.8369701E-16,1.81E1,7.0710677E-1,-5E-1,2.59E1,6.123234E-17,7.8E0,5E-1,7.4E0,-5E-1,3.3E1,4.62E2,3.2E0,3.2E0,1.7E1,1.156E3,5.2E0,0E0,2.5881904E-1,0E0,4.0944E2,-2.4492937E-16,4.29E1,5E-1,3.6E0,4.86E2,4.86E2,6.9392033E0,9.659258E-1,9.659258E-1,2.4E1,-5.9438296E-2,4.3851037E-2,3.1532902E-2,-2.5569562E-2,3.3061154E-2,5.703305E-2,-5.021073E-3,3.541606E-2,-4.0345814E-2,2.5564602E-2,-3.280084E-2,6.9263787E-3,-2.413114E-2,-5.5090267E-2,-6.1303552E-2,-7.579141E-2,-7.501263E-2,-5.6933977E-2,-1.7094178E-2,-5.9568744E-2,-1.5657848E-2,4.178585E-2,-5.6287438E-2,-5.844742E-3,5.519796E-2,3.20578E-2,2.1588212E-5,3.5786893E-2,-3.513413E-2,5.3948164E-3,-4.2299356E-2,-6.821429E-2],"split_indices":[6,0,5,5,0,8,0,8,0,7,0,4,0,0,0,4,0,5,5,5,4,7,0,5,0,4,4,1,5,5,0,0,0,0,0,0,0,0,0,0,0,0,0,0,0,0,0,0,0,0,0,0,0,0,0,0,0,0,0,0,0,0,0],"split_type":[0,0,0,0,0,0,0,0,0,0,0,0,0,0,0,0,0,0,0,0,0,0,0,0,0,0,0,0,0,0,0,0,0,0,0,0,0,0,0,0,0,0,0,0,0,0,0,0,0,0,0,0,0,0,0,0,0,0,0,0,0,0,0],"sum_hessian":[1.4935189E7,8.848533E6,6.0866565E6,7.409683E6,1.4388495E6,3.6558398E6,2.4308168E6,1.4478655E6,5.9618175E6,7.776984E5,6.611512E5,1.5691579E6,2.0866819E6,1.0611986E6,1.3696181E6,6.0091556E5,8.4694994E5,3.4525925E6,2.509225E6,2.6341606E5,5.142823E5,3.2814728E5,3.330039E5,1.3350365E6,2.3412147E5,9.549362E5,1.1317456E6,6.030414E5,4.5815722E5,7.3251725E5,6.371008E5,5.7125306E5,2.9662502E4,5.8084856E5,2.6610138E5,9.679239E5,2.4846685E6,6.4692156E5,1.8623035E6,2.7668184E4,2.3574789E5,4.1252825E5,1.01754055E5,1.4453469E5,1.836126E5,1.8970988E5,1.4329403E5,1.1700852E6,1.6495119E5,7.559575E4,1.5852572E5,7.823902E5,1.7254598E5,9.259467E5,2.0579894E5,4.4384438E5,1.5919702E5,2.10584E5,2.4757322E5,3.245383E5,4.0797894E5,3.535535E5,2.8354734E5],"tree_param":{"num_deleted":"0","num_feature":"10","num_nodes":"63","size_leaf_vector":"1"}},{"base_weights":[-6.0094764E-5,3.6898845E-1,-5.3726095E-1,5.1851386E-1,-8.0897534E-1,-8.1539613E-1,6.4095214E-2,-3.0180043E-1,7.097966E-1,-4.6703026E-1,-1.178364E0,-1.193944E0,-4.182869E-1,6.8581647E-1,-6.517964E-1,-1.0493848E0,2.3841366E-1,9.1799724E-1,3.4272593E-1,-9.973099E-2,-8.0404896E-1,-1.0122914E0,-1.3890722E0,-1.3113004E0,-5.7738024E-1,4.0444706E-2,-8.2494515E-1,9.729095E-1,3.222579E-1,-3.1102702E-1,-1.10558E0,-5.7296246E-2,3.7852034E-2,3.0019924E-2,-2.5625188E-2,2.8052587E-2,5.244708E-2,-1.3121552E-2,2.5980765E-2,-5.4645617E-2,2.588325E-3,-4.7330912E-2,-1.28728375E-2,-3.208486E-2,-5.7832666E-2,-7.448624E-2,-6.291092E-2,-7.0254646E-2,-4.9783345E-2,-9.162505E-3,-5.5268027E-2,-2.7692223E-2,1.53982295E-2,-4.5414083E-2,2.8685307E-2,5.4728623E-2,2.5754744E-2,2.5147025E-2,-1.4678906E-2,1.3162765E-4,-3.8173966E-2,-4.6007913E-2,-6.924667E-2],"categories":[],"categories_nodes":[],"categories_segments":[],"categories_sizes":[],"default_left":[0,0,0,0,0,0,0,0,0,0,0,0,0,0,0,0,0,0,0,0,0,0,0,0,0,0,0,0,0,0,0,0,0,0,0,0,0,0,0,0,0,0,0,0,0,0,0,0,0,0,0,0,0,0,0,0,0,0,0,0,0,0,0],"id":4,"left_children":[1,3,5,7,9,11,13,15,17,19,21,23,25,27,29,31,33,35,37,39,41,43,45,47,49,51,53,55,57,59,61,-1,-1,-1,-1,-1,-1,-1,-1,-1,-1,-1,-1,-1,-1,-1,-1,-1,-1,-1,-1,-1,-1,-1,-1,-1,-1,-1,-1,-1,-1,-1,-1],"loss_changes":[2.9497E6,1.5534369E6,1.0134005E6,1.2280155E6,1.2547831E5,6.2276475E5,8.5282744E5,5.976438E5,4.8501075E5,6.385807E4,1.6709188E4,1.534675E5,3.771666E5,1.0703619E5,1.3771831E5,1.08259375E5,2.3351344E5,1.8927125E5,2.4586678E5,3.7141906E4,2.0964172E4,1.4287E4,2.7703125E3,5.274725E4,7.057491E4,1.5104888E5,1.24921875E5,3.19155E4,5.0349277E4,7.218416E4,1.9783688E4,0E0,0E0,0E0,0E0,0E0,0E0,0E0,0E0,0E0,0E0,0E0,0E0,0E0,0E0,0E0,0E0,0E0,0E0,0E0,0E0,0E0,0E0,0E0,0E0,0E0,0E0,0E0,0E0,0E0,0E0,0E0,0E0],"parents":[2147483647,0,0,1,1,2,2,3,3,4,4,5,5,6,6,7,7,8,8,9,9,10,10,11,11,12,12,13,13,14,14,15,15,16,16,17,17,18,18,19,19,20,20,21,21,22,22,23,23,24,24,25,25,26,26,27,27,28,28,29,29,30,30],"right_children":[2,4,6,8,10,12,14,16,18,20,22,24,26,28,30,32,34,36,38,40,42,44,46,48,50,52,54,56,58,60,62,-1,-1,-1,-1,-1,-1,-1,-1,-1,-1,-1,-1,-1,-1,-1,-1,-1,-1,-1,-1,-1,-1,-1,-1,-1,-1,-1,-1,-1,-1,-1,-1],"split_conditions":[-1.8369701E-16,2.2E1,8.660254E-1,-5E-1,2.9E1,5E-1,1.1E1,5E-1,9.4E0,-2.4492937E-16,3.8E1,4.62E2,3.2E0,4.9E0,2E1,1.156E3,5.2E0,0E0,2.5881904E-1,0E0,4.0944E2,-5E-1,-1.8369701E-16,5E-1,9E0,-2.4492937E-16,1.156E3,9.20624E0,1.035702E1,6.9392033E0,2.8E1,-5.7296246E-2,3.7852034E-2,3.0019924E-2,-2.5625188E-2,2.8052587E-2,5.244708E-2,-1.3121552E-2,2.5980765E-2,-5.4645617E-2,2.588325E-3,-4.7330912E-2,-1.28728375E-2,-3.208486E-2,-5.7832666E-2,-7.448624E-2,-6.291092E-2,-7.0254646E-2,-4.9783345E-2,-9.162505E-3,-5.5268027E-2,-2.7692223E-2,1.53982295E-2,-4.5414083E-2,2.8685307E-2,5.4728623E-2,2.5754744E-2,2.5147025E-2,-1.4678906E-2,1.3162765E-4,-3.8173966E-2,-4.6007913E-2,-6.924667E-2],"split_indices":[6,0,5,5,0,8,0,8,0,7,0,4,0,0,0,4,0,5,5,5,4,7,8,5,0,7,4,1,1,1,0,0,0,0,0,0,0,0,0,0,0,0,0,0,0,0,0,0,0,0,0,0,0,0,0,0,0,0,0,0,0,0,0],"split_type":[0,0,0,0,0,0,0,0,0,0,0,0,0,0,0,0,0,0,0,0,0,0,0,0,0,0,0,0,0,0,0,0,0,0,0,0,0,0,0,0,0,0,0,0,0,0,0,0,0,0,0,0,0,0,0,0,0,0,0,0,0,0,0],"sum_hessian":[1.4878446E7,8.819552E6,6.0588935E6,7.826138E6,9.9341394E5,4.1427955E6,1.9160981E6,1.4798435E6,6.3462945E6,5.1587138E5,4.775426E5,2.120965E6,2.0218304E6,1.0254975E6,8.906007E5,6.20774E5,8.5906956E5,4.0494602E6,2.2968345E6,2.4684694E5,2.6902444E5,2.6706078E5,2.1048181E5,1.7818142E6,3.391508E5,9.5008556E5,1.0717449E6,5.7300675E5,4.5249072E5,5.086391E5,3.8196156E5,5.892816E5,3.149236E4,5.79647E5,2.7942256E5,1.0868326E6,2.9626275E6,5.1951588E5,1.7773186E6,3.2669207E4,2.1417773E5,2.1336983E5,5.565461E4,7.486886E4,1.9219192E5,1.1896428E5,9.151753E4,1.3736284E6,4.081859E5,1.9419112E5,1.4495969E5,2.9492206E5,6.551635E5,1.0114779E6,6.0267004E4,4.527013E5,1.2030546E5,3.498477E5,1.0264301E5,3.0039397E5,2.0824514E5,2.2958086E5,1.5238069E5],"tree_param":{"num_deleted":"0","num_feature":"10","num_nodes":"63","size_leaf_vector":"1"}},{"base_weights":[-8.764686E-5,2.991907E-1,-6.042261E-1,5.0003755E-1,-4.932861E-1,-1.6267902E-1,-8.646803E-1,-3.5126078E-1,7.4768585E-1,-1.7677188E-1,-1.0248549E0,-7.090597E-1,6.1089903E-1,-1.0546162E0,-4.0028295E-1,-1.0380129E0,1.5639639E-1,8.676619E-1,2.9849297E-1,3.6767364E-1,-4.6206483E-1,-7.9559034E-1,-1.2592987E0,-1.247221E0,-3.2005498E-1,3.675143E-2,7.5719094E-1,-1.1783811E0,-5.038041E-1,4.7871854E-2,-9.997454E-1,-5.6328513E-2,3.9420173E-2,2.300419E-2,-2.5757903E-2,2.7143305E-2,5.2333433E-2,8.168185E-3,4.820211E-2,-5.3071197E-2,2.395027E-2,-5.8913242E-2,-1.6757375E-2,-1.7995501E-2,-4.872171E-2,-6.9451E-2,-5.538488E-2,-6.493675E-2,3.6832254E-2,-2.7473053E-2,3.600281E-2,-3.0351952E-2,1.3766788E-2,3.1090572E-2,5.4149844E-2,-6.745705E-2,-4.767367E-2,-4.886189E-2,-6.838312E-3,-6.847821E-3,3.021544E-2,-3.810155E-2,-6.3967586E-2],"categories":[],"categories_nodes":[],"categories_segments":[],"categories_sizes":[],"default_left":[0,0,0,0,0,0,0,0,0,0,0,0,0,0,0,0,0,0,0,0,0,0,0,0,0,0,0,0,0,0,0,0,0,0,0,0,0,0,0,0,0,0,0,0,0,0,0,0,0,0,0,0,0,0,0,0,0,0,0,0,0,0,0],"id":5,"left_children":[1,3,5,7,9,11,13,15,17,19,21,23,25,27,29,31,33,35,37,39,41,43,45,47,49,51,53,55,57,59,61,-1,-1,-1,-1,-1,-1,-1,-1,-1,-1,-1,-1,-1,-1,-1,-1,-1,-1,-1,-1,-1,-1,-1,-1,-1,-1,-1,-1,-1,-1,-1,-1],"loss_changes":[2.6782975E6,1.5766925E6,5.643424E5,1.6661285E6,3.3699403E5,7.695339E5,2.722505E5,6.208987E5,3.299315E5,1.9500114E5,4.0178125E4,2.23377E5,6.330047E4,1.493355E5,2.4069784E5,1.2243206E5,2.088362E5,2.8090975E5,1.16059164E5,6.8679266E4,7.487861E4,2.9448156E4,7.2666875E3,4.57525E4,1.4777931E5,2.3505992E4,2.6490469E4,6.8694E4,6.983943E4,5.2726293E4,2.5473781E4,0E0,0E0,0E0,0E0,0E0,0E0,0E0,0E0,0E0,0E0,0E0,0E0,0E0,0E0,0E0,0E0,0E0,0E0,0E0,0E0,0E0,0E0,0E0,0E0,0E0,0E0,0E0,0E0,0E0,0E0,0E0,0E0],"parents":[2147483647,0,0,1,1,2,2,3,3,4,4,5,5,6,6,7,7,8,8,9,9,10,10,11,11,12,12,13,13,14,14,15,15,16,16,17,17,18,18,19,19,20,20,21,21,22,22,23,23,24,24,25,25,26,26,27,27,28,28,29,29,30,30],"right_children":[2,4,6,8,10,12,14,16,18,20,22,24,26,28,30,32,34,36,38,40,42,44,46,48,50,52,54,56,58,60,62,-1,-1,-1,-1,-1,-1,-1,-1,-1,-1,-1,-1,-1,-1,-1,-1,-1,-1,-1,-1,-1,-1,-1,-1,-1,-1,-1,-1,-1,-1,-1,-1],"split_conditions":[2.5881904E-1,1.64E1,3.2E0,-5E-1,2.59E1,1.2246469E-16,8.660254E-1,5E-1,9.20624E0,-5E-1,3.3E1,6.123234E-17,5E-1,4.56E2,1.49E1,1.156E3,5.2E0,2.5881904E-1,4.05E2,-2.5881904E-1,-2.5881904E-1,-5E-1,-1.8369701E-16,1.156E3,4.86E2,6.123234E-17,3.2818E2,5E-1,6.123234E-17,3.4915E2,2.2E1,-5.6328513E-2,3.9420173E-2,2.300419E-2,-2.5757903E-2,2.7143305E-2,5.2333433E-2,8.168185E-3,4.820211E-2,-5.3071197E-2,2.395027E-2,-5.8913242E-2,-1.6757375E-2,-1.7995501E-2,-4.872171E-2,-6.9451E-2,-5.538488E-2,-6.493675E-2,3.6832254E-2,-2.7473053E-2,3.600281E-2,-3.0351952E-2,1.3766788E-2,3.1090572E-2,5.4149844E-2,-6.745705E-2,-4.767367E-2,-4.886189E-2,-6.838312E-3,-6.847821E-3,3.021544E-2,-3.810155E-2,-6.3967586E-2],"split_indices":[6,0,0,5,0,5,5,8,1,7,0,8,5,4,0,4,0,5,4,5,5,7,8,4,4,8,4,8,8,4,0,0,0,0,0,0,0,0,0,0,0,0,0,0,0,0,0,0,0,0,0,0,0,0,0,0,0,0,0,0,0,0,0],"split_type":[0,0,0,0,0,0,0,0,0,0,0,0,0,0,0,0,0,0,0,0,0,0,0,0,0,0,0,0,0,0,0,0,0,0,0,0,0,0,0,0,0,0,0,0,0,0,0,0,0,0,0,0,0,0,0,0,0,0,0,0,0,0,0],"sum_hessian":[1.4813136E7,9.905932E6,4.907204E6,7.902985E6,2.0029474E6,1.8206554E6,3.0865485E6,1.7809425E6,6.1220425E6,1.2554254E6,7.475219E5,1.0670175E6,7.536378E5,2.1906032E6,8.959455E5,7.569497E5,1.02399275E6,4.831566E6,1.2904761E6,4.3165884E5,8.2376656E5,3.779378E5,3.695841E5,4.4768038E5,6.193371E5,1.5303339E5,6.0060444E5,1.7886916E6,4.0191156E5,5.126741E5,3.8327138E5,7.219452E5,3.500453E4,7.051247E5,3.1886806E5,1.7167116E6,3.1148545E6,1.0726855E6,2.1779066E5,3.119674E4,4.004621E5,1.2400318E5,6.997634E5,1.099914E5,2.679464E5,1.9915997E5,1.7042412E5,4.3635025E5,1.1330119E4,5.0742116E5,1.1191594E5,4.137811E4,1.1165528E5,4.24301E5,1.7630345E5,1.0167356E6,7.71956E5,1.7551592E5,2.2639564E5,3.8484366E5,1.2783044E5,2.071561E5,1.761153E5],"tree_param":{"num_deleted":"0","num_feature":"10","num_nodes":"63","size_leaf_vector":"1"}},{"base_weights":[-1.184487E-4,3.373255E-1,-4.9260873E-1,5.0684744E-1,-5.36195E-1,-8.0063814E-1,-3.335075E-2,-8.955384E-2,7.408292E-1,-2.3810509E-1,-1.0402192E0,-1.2249974E0,-4.880098E-1,5.5636597E-1,-6.448183E-1,-8.6665606E-1,2.9864416E-1,8.432265E-1,1.9836761E-1,1.2542102E-1,-6.0333806E-1,-8.3259594E-1,-1.2379678E0,-1.2600647E0,-3.1750336E-1,-6.647039E-1,3.0326754E-1,8.6700726E-1,2.5346348E-1,-3.5515553E-1,-1.0325298E0,-4.7503263E-2,4.3643113E-2,2.7783284E-2,-2.679049E-2,5.2162793E-2,3.1938296E-2,2.0681763E-2,-1.0552044E-2,-5.634777E-2,1.1903804E-2,-3.7934527E-2,-2.2083455E-5,-2.2090103E-2,-4.945829E-2,-5.7112005E-2,-7.074643E-2,-6.5505125E-2,-4.5786817E-2,4.6222493E-2,-5.1514335E-2,-1.0363318E-2,-4.759423E-2,3.282016E-2,-1.2249357E-2,4.734508E-2,1.9406896E-2,-4.0838136E-3,2.701412E-2,-3.8390476E-2,-2.223241E-3,-6.5888055E-2,-4.3462943E-2],"categories":[],"categories_nodes":[],"categories_segments":[],"categories_sizes":[],"default_left":[0,0,0,0,0,0,0,0,0,0,0,0,0,0,0,0,0,0,0,0,0,0,0,0,0,0,0,0,0,0,0,0,0,0,0,0,0,0,0,0,0,0,0,0,0,0,0,0,0,0,0,0,0,0,0,0,0,0,0,0,0,0,0],"id":6,"left_children":[1,3,5,7,9,11,13,15,17,19,21,23,25,27,29,31,33,35,37,39,41,43,45,47,49,51,53,55,57,59,61,-1,-1,-1,-1,-1,-1,-1,-1,-1,-1,-1,-1,-1,-1,-1,-1,-1,-1,-1,-1,-1,-1,-1,-1,-1,-1,-1,-1,-1,-1,-1,-1],"loss_changes":[2.449596E6,1.295234E6,8.478166E5,1.02221175E6,2.1358531E5,4.75897E5,8.675698E5,6.226666E5,2.922385E5,1.1860278E5,2.1689625E4,4.842425E4,2.8878628E5,1.1524244E5,1.3265444E5,9.976684E4,2.952139E5,1.81003E5,7.362767E4,6.3163082E4,4.1735094E4,1.5768594E4,4.5820625E3,2.5241E4,5.011801E4,2.2180862E5,7.299795E4,2.3133188E4,5.9607375E4,8.6679516E4,2.352175E4,0E0,0E0,0E0,0E0,0E0,0E0,0E0,0E0,0E0,0E0,0E0,0E0,0E0,0E0,0E0,0E0,0E0,0E0,0E0,0E0,0E0,0E0,0E0,0E0,0E0,0E0,0E0,0E0,0E0,0E0,0E0,0E0],"parents":[2147483647,0,0,1,1,2,2,3,3,4,4,5,5,6,6,7,7,8,8,9,9,10,10,11,11,12,12,13,13,14,14,15,15,16,16,17,17,18,18,19,19,20,20,21,21,22,22,23,23,24,24,25,25,26,26,27,27,28,28,29,29,30,30],"right_children":[2,4,6,8,10,12,14,16,18,20,22,24,26,28,30,32,34,36,38,40,42,44,46,48,50,52,54,56,58,60,62,-1,-1,-1,-1,-1,-1,-1,-1,-1,-1,-1,-1,-1,-1,-1,-1,-1,-1,-1,-1,-1,-1,-1,-1,-1,-1,-1,-1,-1,-1,-1,-1],"split_conditions":[-1.8369701E-16,1.81E1,7.0710677E-1,-2.5881904E-1,2.8E1,6.123234E-17,9.9E0,6.123234E-17,1.035702E1,-2.4492937E-16,3.5E1,1.156E3,4.86E2,3.6E0,1.9E1,1.156E3,7.2E0,6.3E0,1.1E1,-2.5881904E-1,4.0944E2,-5E-1,4.7E1,5E-1,1.236E3,2.3E0,5.2E0,1.0287973E1,9.659258E-1,9.659258E-1,9.659258E-1,-4.7503263E-2,4.3643113E-2,2.7783284E-2,-2.679049E-2,5.2162793E-2,3.1938296E-2,2.0681763E-2,-1.0552044E-2,-5.634777E-2,1.1903804E-2,-3.7934527E-2,-2.2083455E-5,-2.2090103E-2,-4.945829E-2,-5.7112005E-2,-7.074643E-2,-6.5505125E-2,-4.5786817E-2,4.6222493E-2,-5.1514335E-2,-1.0363318E-2,-4.759423E-2,3.282016E-2,-1.2249357E-2,4.734508E-2,1.9406896E-2,-4.0838136E-3,2.701412E-2,-3.8390476E-2,-2.223241E-3,-6.5888055E-2,-4.3462943E-2],"split_indices":[6,0,5,5,0,8,0,8,1,7,0,4,4,0,0,4,0,0,0,5,4,7,0,5,4,0,0,1,5,5,5,0,0,0,0,0,0,0,0,0,0,0,0,0,0,0,0,0,0,0,0,0,0,0,0,0,0,0,0,0,0,0,0],"split_type":[0,0,0,0,0,0,0,0,0,0,0,0,0,0,0,0,0,0,0,0,0,0,0,0,0,0,0,0,0,0,0,0,0,0,0,0,0,0,0,0,0,0,0,0,0,0,0,0,0,0,0,0,0,0,0,0,0,0,0,0,0,0,0],"sum_hessian":[1.4739918E7,8.746797E6,5.9931205E6,7.325212E6,1.4215851E6,3.5871672E6,2.4059535E6,2.0640669E6,5.261145E6,8.932819E5,5.283032E5,1.5216664E6,2.0655009E6,1.22476E6,1.1811934E6,6.8760494E5,1.376462E6,4.425726E6,8.3541906E5,4.476874E5,4.455945E5,2.5771956E5,2.7058362E5,1.4650535E6,5.6612863E4,1.6884634E6,3.770376E5,6.04655E5,6.2010506E5,6.760857E5,5.0510772E5,6.5614356E5,3.1461361E4,1.0523319E6,3.2413006E5,2.237104E6,2.188622E6,5.4752794E5,2.878911E5,3.6946574E4,4.1074084E5,3.5429947E5,9.129503E4,7.37201E4,1.8399947E5,1.7559967E5,9.498397E4,1.2791626E6,1.8589083E5,2.0643443E4,3.5969418E4,6.511989E5,1.03726444E6,2.293263E5,1.4771131E5,5.181981E5,8.6456875E4,2.8596444E5,3.3414062E5,2.903914E5,3.8569428E5,1.8387492E5,3.2123278E5],"tree_param":{"num_deleted":"0","num_feature":"10","num_nodes":"63","size_leaf_vector":"1"}},{"base_weights":[-1.4676126E-4,3.2211787E-1,-4.7128868E-1,5.0582016E-1,-4.175155E-1,-7.671074E-1,-3.184836E-2,-2.281824E-1,6.8998003E-1,-1.210175E-1,-9.2147297E-1,-1.1159629E0,-4.0899932E-1,6.2041235E-1,-5.377438E-1,-1.0346777E0,1.6990085E-1,8.829938E-1,4.707266E-1,3.8689473E-1,-3.8563156E-1,-6.92938E-1,-1.1526121E0,-1.1831037E0,-2.0034939E-1,-9.31289E-1,-1.4121929E-1,8.8447654E-1,3.8634917E-1,-2.142686E-1,-9.1727513E-1,-5.5365454E-2,3.2013346E-2,2.6078314E-2,-1.9824645E-2,3.0180676E-2,4.991382E-2,-1.532101E-3,3.3481166E-2,-4.604284E-2,2.428158E-2,-2.6760785E-2,1.1456744E-2,-1.9700637E-2,-4.662363E-2,-6.404244E-2,-5.0031792E-2,-6.3462816E-2,-4.9366985E-2,2.4894612E-2,-3.358637E-2,-4.9659334E-2,1.35465255E-2,1.1875926E-2,-2.5923181E-2,4.936282E-2,2.9328734E-2,4.107752E-3,3.2492537E-2,-2.045553E-2,1.9233119E-2,-3.553599E-2,-5.903965E-2],"categories":[],"categories_nodes":[],"categories_segments":[],"categories_sizes":[],"default_left":[0,0,0,0,0,0,0,0,0,0,0,0,0,0,0,0,0,0,0,0,0,0,0,0,0,0,0,0,0,0,0,0,0,0,0,0,0,0,0,0,0,0,0,0,0,0,0,0,0,0,0,0,0,0,0,0,0,0,0,0,0,0,0],"id":7,"left_children":[1,3,5,7,9,11,13,15,17,19,21,23,25,27,29,31,33,35,37,39,41,43,45,47,49,51,53,55,57,59,61,-1,-1,-1,-1,-1,-1,-1,-1,-1,-1,-1,-1,-1,-1,-1,-1,-1,-1,-1,-1,-1,-1,-1,-1,-1,-1,-1,-1,-1,-1,-1,-1],"loss_changes":[2.2252258E6,1.1824882E6,7.73842E5,9.4235625E5,2.5872372E5,4.44473E5,7.9030406E5,4.489254E5,2.358495E5,1.465143E5,3.387825E4,1.1079E5,2.4554119E5,6.466153E4,1.6559769E5,5.6217E4,1.8647214E5,9.546075E4,2.6019288E5,4.82155E4,6.590981E4,2.3091703E4,6.2130625E3,2.831725E4,4.0525418E4,4.4280062E4,1.6582238E5,1.50509375E4,4.4453906E4,8.4979766E4,3.3781844E4,0E0,0E0,0E0,0E0,0E0,0E0,0E0,0E0,0E0,0E0,0E0,0E0,0E0,0E0,0E0,0E0,0E0,0E0,0E0,0E0,0E0,0E0,0E0,0E0,0E0,0E0,0E0,0E0,0E0,0E0,0E0,0E0],"parents":[2147483647,0,0,1,1,2,2,3,3,4,4,5,5,6,6,7,7,8,8,9,9,10,10,11,11,12,12,13,13,14,14,15,15,16,16,17,17,18,18,19,19,20,20,21,21,22,22,23,23,24,24,25,25,26,26,27,27,28,28,29,29,30,30],"right_children":[2,4,6,8,10,12,14,16,18,20,22,24,26,28,30,32,34,36,38,40,42,44,46,48,50,52,54,56,58,60,62,-1,-1,-1,-1,-1,-1,-1,-1,-1,-1,-1,-1,-1,-1,-1,-1,-1,-1,-1,-1,-1,-1,-1,-1,-1,-1,-1,-1,-1,-1,-1,-1],"split_conditions":[-1.8369701E-16,1.64E1,7.0710677E-1,-5E-1,2.59E1,5E-1,7.8E0,6.123234E-17,6.3E0,-5E-1,3.3E1,8.34E2,-2.4492937E-16,2.3E0,1.7E1,1.156E3,4.3E0,0E0,2.5881904E-1,-2.5881904E-1,4.0944E2,-2.4492937E-16,-1.8369701E-16,-1.8369701E-16,4.3E0,1.156E3,3.2E0,6.9392033E0,9.659258E-1,3.4915E2,2.4E1,-5.5365454E-2,3.2013346E-2,2.6078314E-2,-1.9824645E-2,3.0180676E-2,4.991382E-2,-1.532101E-3,3.3481166E-2,-4.604284E-2,2.428158E-2,-2.6760785E-2,1.1456744E-2,-1.9700637E-2,-4.662363E-2,-6.404244E-2,-5.0031792E-2,-6.3462816E-2,-4.9366985E-2,2.4894612E-2,-3.358637E-2,-4.9659334E-2,1.35465255E-2,1.1875926E-2,-2.5923181E-2,4.936282E-2,2.9328734E-2,4.107752E-3,3.2492537E-2,-2.045553E-2,1.9233119E-2,-3.553599E-2,-5.903965E-2],"split_indices":[6,0,5,5,0,8,0,8,0,7,0,4,7,0,0,4,0,5,5,5,4,7,8,8,0,4,0,1,5,4,0,0,0,0,0,0,0,0,0,0,0,0,0,0,0,0,0,0,0,0,0,0,0,0,0,0,0,0,0,0,0,0,0],"split_type":[0,0,0,0,0,0,0,0,0,0,0,0,0,0,0,0,0,0,0,0,0,0,0,0,0,0,0,0,0,0,0,0,0,0,0,0,0,0,0,0,0,0,0,0,0,0,0,0,0,0,0,0,0,0,0,0,0,0,0,0,0,0,0],"sum_hessian":[1.4655804E7,8.702933E6,5.9528715E6,6.9714405E6,1.7314922E6,3.5578362E6,2.395035E6,1.3982922E6,5.5731485E6,1.0901282E6,6.41364E5,1.8021994E6,1.7556369E6,1.04617775E6,1.3488572E6,4.6210028E5,9.36192E5,2.96393E6,2.6092182E6,3.7340234E5,7.167259E5,3.2250078E5,3.1886322E5,1.6790746E6,1.23124734E5,5.9504094E5,1.1605959E6,4.9158316E5,5.545946E5,7.2820694E5,6.206504E5,4.4289516E5,1.9205123E4,5.7758075E5,3.5861122E5,8.6577744E5,2.0981525E6,7.410978E5,1.8681205E6,2.621262E4,3.4718975E5,5.7646206E5,1.402638E5,1.4346606E5,1.7903472E5,1.7293453E5,1.4592867E5,1.1659515E6,5.131232E5,4.962149E4,7.350324E4,5.659049E5,2.9136086E4,5.7915175E5,5.814441E5,3.6548425E5,1.260989E5,2.5742116E5,2.9717344E5,5.494592E5,1.787477E5,3.479318E5,2.7271856E5],"tree_param":{"num_deleted":"0","num_feature":"10","num_nodes":"63","size_leaf_vector":"1"}},{"base_weights":[-1.7383457E-4,2.622058E-1,-5.326912E-1,3.8737342E-1,-7.1178395E-1,-1.938509E-1,-8.1615907E-1,-3.4536654E-1,5.8434445E-1,-4.3228415E-1,-1.0274312E0,-6.649019E-1,4.6435812E-1,-9.936729E-1,-4.2437646E-1,-9.482687E-1,1.0565758E-1,7.5751424E-1,2.0295218E-1,-5.192457E-3,-6.3243806E-1,-8.892897E-1,-1.2123924E0,-8.350777E-1,2.9042193E-1,-4.737769E-2,5.9632057E-1,-1.1093591E0,-5.342003E-1,-2.9101655E-2,-8.8973016E-1,-5.1378902E-2,2.9293943E-2,2.0184154E-2,-2.4716448E-2,2.1332562E-2,4.3171935E-2,3.203195E-2,-1.8018375E-3,-4.4713892E-2,5.845836E-3,-3.7481755E-2,-8.229116E-3,-2.8623229E-2,-5.070078E-2,2.861317E-2,-6.1014302E-2,-5.8808036E-2,-2.4593629E-2,-2.2881968E-2,2.9716147E-2,-3.563987E-2,6.9536604E-3,4.2787444E-2,1.9922212E-2,-6.530123E-2,-4.866835E-2,-3.6586095E-3,-3.903432E-2,-1.0465405E-2,2.5761819E-2,-3.36554E-2,-5.7535358E-2],"categories":[],"categories_nodes":[],"categories_segments":[],"categories_sizes":[],"default_left":[0,0,0,0,0,0,0,0,0,0,0,0,0,0,0,0,0,0,0,0,0,0,0,0,0,0,0,0,0,0,0,0,0,0,0,0,0,0,0,0,0,0,0,0,0,0,0,0,0,0,0,0,0,0,0,0,0,0,0,0,0,0,0],"id":8,"left_children":[1,3,5,7,9,11,13,15,17,19,21,23,25,27,29,31,33,35,37,39,41,43,45,47,49,51,53,55,57,59,61,-1,-1,-1,-1,-1,-1,-1,-1,-1,-1,-1,-1,-1,-1,-1,-1,-1,-1,-1,-1,-1,-1,-1,-1,-1,-1,-1,-1,-1,-1,-1,-1],"loss_changes":[2.035393E6,1.1897448E6,4.618515E5,1.2481138E6,9.8044E4,6.791008E5,1.8208312E5,4.9819925E5,4.5014E5,5.038529E4,1.333425E4,2.0754931E5,6.1698297E4,9.5772E4,1.5016545E5,9.5398125E4,1.8740827E5,1.6427425E5,2.2262156E5,2.041932E4,2.2005328E4,1.1805797E4,3.1440938E3,1.2684969E5,4.3883223E4,2.3238537E4,3.728611E4,3.84945E4,4.118268E4,4.330084E4,2.1196312E4,0E0,0E0,0E0,0E0,0E0,0E0,0E0,0E0,0E0,0E0,0E0,0E0,0E0,0E0,0E0,0E0,0E0,0E0,0E0,0E0,0E0,0E0,0E0,0E0,0E0,0E0,0E0,0E0,0E0,0E0,0E0,0E0],"parents":[2147483647,0,0,1,1,2,2,3,3,4,4,5,5,6,6,7,7,8,8,9,9,10,10,11,11,12,12,13,13,14,14,15,15,16,16,17,17,18,18,19,19,20,20,21,21,22,22,23,23,24,24,25,25,26,26,27,27,28,28,29,29,30,30],"right_children":[2,4,6,8,10,12,14,16,18,20,22,24,26,28,30,32,34,36,38,40,42,44,46,48,50,52,54,56,58,60,62,-1,-1,-1,-1,-1,-1,-1,-1,-1,-1,-1,-1,-1,-1,-1,-1,-1,-1,-1,-1,-1,-1,-1,-1,-1,-1,-1,-1,-1,-1,-1,-1],"split_conditions":[2.5881904E-1,2.2E1,4.3E0,-5E-1,2.9E1,1.2246469E-16,8.660254E-1,5E-1,1.1E1,-5E-1,3.8E1,4.86E2,5E-1,4.0944E2,1.49E1,1.156E3,5.2E0,0E0,-5E-1,0E0,4.0944E2,-5E-1,7E0,5E-1,6.123234E-17,-1.8369701E-16,1.4E0,-1.8369701E-16,-3.09017E-1,3.4915E2,2.2E1,-5.1378902E-2,2.9293943E-2,2.0184154E-2,-2.4716448E-2,2.1332562E-2,4.3171935E-2,3.203195E-2,-1.8018375E-3,-4.4713892E-2,5.845836E-3,-3.7481755E-2,-8.229116E-3,-2.8623229E-2,-5.070078E-2,2.861317E-2,-6.1014302E-2,-5.8808036E-2,-2.4593629E-2,-2.2881968E-2,2.9716147E-2,-3.563987E-2,6.9536604E-3,4.2787444E-2,1.9922212E-2,-6.530123E-2,-4.866835E-2,-3.6586095E-3,-3.903432E-2,-1.0465405E-2,2.5761819E-2,-3.36554E-2,-5.7535358E-2],"split_indices":[6,0,0,5,0,5,5,8,0,7,0,4,5,4,0,4,0,5,7,5,4,7,9,8,8,8,0,8,3,4,0,0,0,0,0,0,0,0,0,0,0,0,0,0,0,0,0,0,0,0,0,0,0,0,0,0,0,0,0,0,0,0,0],"split_type":[0,0,0,0,0,0,0,0,0,0,0,0,0,0,0,0,0,0,0,0,0,0,0,0,0,0,0,0,0,0,0,0,0,0,0,0,0,0,0,0,0,0,0,0,0,0,0,0,0,0,0,0,0,0,0,0,0,0,0,0,0,0,0],"sum_hessian":[1.4567476E7,9.759043E6,4.808433E6,8.647723E6,1.11132E6,2.1902925E6,2.6181405E6,1.8321294E6,6.815594E6,5.894104E5,5.2190962E5,1.2766505E6,9.136421E5,1.8017701E6,8.163705E5,7.84053E5,1.04807644E6,4.6873285E6,2.1282652E6,1.8808103E5,4.0132934E5,2.9877216E5,2.2313747E5,1.0836208E6,1.9302973E5,1.8730289E5,7.263392E5,1.4393649E6,3.6240512E5,4.4142334E5,3.7494712E5,7.4551325E5,3.8539727E4,7.0024894E5,3.4782753E5,1.136716E6,3.5506125E6,7.5166194E5,1.3766032E6,2.2711404E4,1.6536962E5,3.209351E5,8.039426E4,8.439641E4,2.1437577E5,9.822756E2,2.2215519E5,5.434894E5,5.401314E5,5.5764145E4,1.372656E5,4.09948E4,1.463081E5,3.1428653E5,4.120527E5,5.884158E5,8.509491E5,1.2625632E5,2.3614881E5,3.3163438E5,1.0978897E5,2.0488623E5,1.700609E5],"tree_param":{"num_deleted":"0","num_feature":"10","num_nodes":"63","size_leaf_vector":"1"}},{"base_weights":[-2.0938173E-4,3.527227E-1,-3.6719936E-1,5.4276425E-1,-2.7201834E-1,-6.61803E-1,1.2236327E-1,1.769834E-1,7.791121E-1,-3.4267537E-2,-8.2418245E-1,-1.0060266E0,-3.2028714E-1,5.6536573E-1,-4.992957E-1,-6.437299E-1,4.5363975E-1,9.162652E-1,4.0854967E-1,-6.236681E-1,1.9330305E-1,-6.175246E-1,-1.1079609E0,-1.1166812E0,-4.4594973E-1,5.8696844E-2,-6.65699E-1,7.47249E-1,4.507247E-2,-2.7442408E-1,-9.8708326E-1,-3.7011612E-2,6.062727E-2,3.2094877E-2,-1.1136024E-2,4.114383E-2,5.7333168E-2,1.4913179E-2,4.8117828E-2,-3.5002347E-2,2.3198536E-2,2.0120768E-2,-1.652655E-2,-1.6364262E-2,-4.2077728E-2,-4.976319E-2,-6.546789E-2,-5.974106E-2,-4.142033E-2,-6.202976E-3,-5.0420564E-2,-2.4224838E-2,1.5012989E-2,-4.3041464E-2,-7.5241076E-3,4.6695836E-2,2.3848075E-2,-6.0621835E-3,4.3389015E-2,1.5644152E-3,-3.496351E-2,-3.9893314E-2,-5.9011903E-2],"categories":[],"categories_nodes":[],"categories_segments":[],"categories_sizes":[],"default_left":[0,0,0,0,0,0,0,0,0,0,0,0,0,0,0,0,0,0,0,0,0,0,0,0,0,0,0,0,0,0,0,0,0,0,0,0,0,0,0,0,0,0,0,0,0,0,0,0,0,0,0,0,0,0,0,0,0,0,0,0,0,0,0],"id":9,"left_children":[1,3,5,7,9,11,13,15,17,19,21,23,25,27,29,31,33,35,37,39,41,43,45,47,49,51,53,55,57,59,61,-1,-1,-1,-1,-1,-1,-1,-1,-1,-1,-1,-1,-1,-1,-1,-1,-1,-1,-1,-1,-1,-1,-1,-1,-1,-1,-1,-1,-1,-1,-1,-1],"loss_changes":[1.8749474E6,8.761147E5,1.0235186E6,4.8915138E5,2.2594853E5,5.2083588E5,7.342399E5,5.0427303E5,1.7468988E5,1.6137439E5,3.0379656E4,1.3674675E5,2.9113162E5,1.4731988E5,1.2168544E5,1.0030095E5,2.1149653E5,5.397725E4,5.6710734E4,2.7840695E4,9.5079234E4,1.949025E4,4.953125E3,4.1502E4,6.590583E4,1.3914842E5,1.16974375E5,5.819875E4,5.5175805E4,9.862084E4,1.2792656E4,0E0,0E0,0E0,0E0,0E0,0E0,0E0,0E0,0E0,0E0,0E0,0E0,0E0,0E0,0E0,0E0,0E0,0E0,0E0,0E0,0E0,0E0,0E0,0E0,0E0,0E0,0E0,0E0,0E0,0E0,0E0,0E0],"parents":[2147483647,0,0,1,1,2,2,3,3,4,4,5,5,6,6,7,7,8,8,9,9,10,10,11,11,12,12,13,13,14,14,15,15,16,16,17,17,18,18,19,19,20,20,21,21,22,22,23,23,24,24,25,25,26,26,27,27,28,28,29,29,30,30],"right_children":[2,4,6,8,10,12,14,16,18,20,22,24,26,28,30,32,34,36,38,40,42,44,46,48,50,52,54,56,58,60,62,-1,-1,-1,-1,-1,-1,-1,-1,-1,-1,-1,-1,-1,-1,-1,-1,-1,-1,-1,-1,-1,-1,-1,-1,-1,-1,-1,-1,-1,-1,-1,-1],"split_conditions":[-2.5881904E-1,1.49E1,8.660254E-1,0E0,2.59E1,5E-1,1.27E1,-1.8369701E-16,8.05546E0,2.5881904E-1,3.5E1,4.62E2,3.2E0,9.20624E0,2.4E1,1.156E3,7.2E0,3.2818E2,4.05E2,1.156E3,8.953069E0,-2.4492937E-16,4.7E1,5E-1,1.04E1,-2.4492937E-16,3.57E2,5.8E0,4.62E2,6.9392033E0,1.2246469E-16,-3.7011612E-2,6.062727E-2,3.2094877E-2,-1.1136024E-2,4.114383E-2,5.7333168E-2,1.4913179E-2,4.8117828E-2,-3.5002347E-2,2.3198536E-2,2.0120768E-2,-1.652655E-2,-1.6364262E-2,-4.2077728E-2,-4.976319E-2,-6.546789E-2,-5.974106E-2,-4.142033E-2,-6.202976E-3,-5.0420564E-2,-2.4224838E-2,1.5012989E-2,-4.3041464E-2,-7.5241076E-3,4.6695836E-2,2.3848075E-2,-6.0621835E-3,4.3389015E-2,1.5644152E-3,-3.496351E-2,-3.9893314E-2,-5.9011903E-2],"split_indices":[6,0,5,5,0,8,0,8,1,5,0,4,0,1,0,4,0,4,4,4,1,7,0,5,0,7,4,0,4,1,7,0,0,0,0,0,0,0,0,0,0,0,0,0,0,0,0,0,0,0,0,0,0,0,0,0,0,0,0,0,0,0,0],"split_type":[0,0,0,0,0,0,0,0,0,0,0,0,0,0,0,0,0,0,0,0,0,0,0,0,0,0,0,0,0,0,0,0,0,0,0,0,0,0,0,0,0,0,0,0,0,0,0,0,0,0,0,0,0,0,0,0,0,0,0,0,0,0,0],"sum_hessian":[1.4475836E7,7.3792525E6,7.096583E6,5.658101E6,1.7211518E6,4.4304655E6,2.6661175E6,2.2209212E6,3.4371795E6,1.2031154E6,5.180363E5,2.2064848E6,2.2239808E6,1.556754E6,1.1093635E6,5.59913E5,1.6610082E6,2.508667E6,9.285127E5,3.3513212E5,8.6798325E5,2.9975038E5,2.1828594E5,1.8424668E6,3.6401794E5,1.0604556E6,1.1635252E6,1.153511E6,4.0324294E5,7.593174E5,3.500462E5,5.322439E5,2.7669186E4,1.2993484E6,3.6165984E5,1.7851049E6,7.23562E5,7.743156E5,1.5419706E5,3.1314225E5,2.1989879E4,6.203446E5,2.4763866E5,1.305806E5,1.6916978E5,1.3996858E5,7.831737E4,1.449548E6,3.9291872E5,2.3152189E5,1.3249606E5,3.26428E5,7.340276E5,8.4390775E5,3.196175E5,6.822966E5,4.712144E5,3.3543356E5,6.780939E4,4.4157097E5,3.177464E5,1.7682811E5,1.7321806E5],"tree_param":{"num_deleted":"0","num_feature":"10","num_nodes":"63","size_leaf_vector":"1"}},{"base_weights":[-2.3100435E-4,3.370907E-1,-3.5154468E-1,5.189533E-1,-2.5960833E-1,-6.34482E-1,1.168411E-1,1.6868988E-1,7.4641067E-1,-3.2608207E-2,-7.91741E-1,-9.6955246E-1,-3.05455E-1,5.399809E-1,-4.7667542E-1,-4.9545133E-1,4.82589E-1,8.7938136E-1,3.8949206E-1,-5.942124E-1,1.8382251E-1,-5.698573E-1,-1.0452167E0,-1.078253E0,-4.256255E-1,-3.5351448E-2,-7.534281E-1,7.148531E-1,4.2861562E-2,-2.6099467E-1,-9.499781E-1,-2.8894914E-2,5.8986165E-2,3.7103638E-2,-1.9417036E-3,3.9442696E-2,5.5178892E-2,1.4201333E-2,4.6126954E-2,-3.335597E-2,2.2036094E-2,2.3062306E-2,-8.945701E-3,-1.4335771E-2,-3.9560866E-2,-4.6935506E-2,-6.354399E-2,-5.7810258E-2,-3.967559E-2,-5.8966572E-3,-4.844524E-2,-1.2017834E-2,2.663195E-2,-4.1359607E-2,2.4634402E-2,4.4819336E-2,2.2703964E-2,-5.7561994E-3,4.1451957E-2,-9.991812E-4,-3.767829E-2,-3.8255442E-2,-5.7001837E-2],"categories":[],"categories_nodes":[],"categories_segments":[],"categories_sizes":[],"default_left":[0,0,0,0,0,0,0,0,0,0,0,0,0,0,0,0,0,0,0,0,0,0,0,0,0,0,0,0,0,0,0,0,0,0,0,0,0,0,0,0,0,0,0,0,0,0,0,0,0,0,0,0,0,0,0,0,0,0,0,0,0,0,0],"id":10,"left_children":[1,3,5,7,9,11,13,15,17,19,21,23,25,27,29,31,33,35,37,39,41,43,45,47,49,51,53,55,57,59,61,-1,-1,-1,-1,-1,-1,-1,-1,-1,-1,-1,-1,-1,-1,-1,-1,-1,-1,-1,-1,-1,-1,-1,-1,-1,-1,-1,-1,-1,-1,-1,-1],"loss_changes":[1.7043092E6,7.961844E5,9.3359394E5,4.4799362E5,2.0701955E5,4.841815E5,6.662611E5,4.6154084E5,1.6179975E5,1.4602173E5,2.8822156E4,1.28650625E5,2.6811912E5,1.346381E5,1.1271641E5,9.8136516E4,2.03406E5,5.041125E4,5.202189E4,2.5215938E4,8.72639E4,1.7127297E4,5.7480625E3,4.025175E4,6.058261E4,1.6096569E5,7.661434E4,5.4237688E4,5.0059145E4,9.004806E4,1.21439375E4,0E0,0E0,0E0,0E0,0E0,0E0,0E0,0E0,0E0,0E0,0E0,0E0,0E0,0E0,0E0,0E0,0E0,0E0,0E0,0E0,0E0,0E0,0E0,0E0,0E0,0E0,0E0,0E0,0E0,0E0,0E0,0E0],"parents":[2147483647,0,0,1,1,2,2,3,3,4,4,5,5,6,6,7,7,8,8,9,9,10,10,11,11,12,12,13,13,14,14,15,15,16,16,17,17,18,18,19,19,20,20,21,21,22,22,23,23,24,24,25,25,26,26,27,27,28,28,29,29,30,30],"right_children":[2,4,6,8,10,12,14,16,18,20,22,24,26,28,30,32,34,36,38,40,42,44,46,48,50,52,54,56,58,60,62,-1,-1,-1,-1,-1,-1,-1,-1,-1,-1,-1,-1,-1,-1,-1,-1,-1,-1,-1,-1,-1,-1,-1,-1,-1,-1,-1,-1,-1,-1,-1,-1],"split_conditions":[-2.5881904E-1,1.49E1,8.660254E-1,0E0,2.59E1,5E-1,1.27E1,6.123234E-17,8.05546E0,2.5881904E-1,3.4E1,4.62E2,5.2E0,9.20624E0,2.4E1,1.156E3,5.2E0,3.2818E2,4.05E2,1.156E3,-2.4492937E-16,-2.4492937E-16,4.7E1,5E-1,1.04E1,3.61E2,1.156E3,5.8E0,4.62E2,8.953069E0,1.2246469E-16,-2.8894914E-2,5.8986165E-2,3.7103638E-2,-1.9417036E-3,3.9442696E-2,5.5178892E-2,1.4201333E-2,4.6126954E-2,-3.335597E-2,2.2036094E-2,2.3062306E-2,-8.945701E-3,-1.4335771E-2,-3.9560866E-2,-4.6935506E-2,-6.354399E-2,-5.7810258E-2,-3.967559E-2,-5.8966572E-3,-4.844524E-2,-1.2017834E-2,2.663195E-2,-4.1359607E-2,2.4634402E-2,4.4819336E-2,2.2703964E-2,-5.7561994E-3,4.1451957E-2,-9.991812E-4,-3.767829E-2,-3.8255442E-2,-5.7001837E-2],"split_indices":[6,0,5,5,0,8,0,8,1,5,0,4,0,1,0,4,0,4,4,4,7,7,0,5,0,4,4,0,4,1,7,0,0,0,0,0,0,0,0,0,0,0,0,0,0,0,0,0,0,0,0,0,0,0,0,0,0,0,0,0,0,0,0],"split_type":[0,0,0,0,0,0,0,0,0,0,0,0,0,0,0,0,0,0,0,0,0,0,0,0,0,0,0,0,0,0,0,0,0,0,0,0,0,0,0,0,0,0,0,0,0,0,0,0,0,0,0,0,0,0,0,0,0,0,0,0,0,0,0],"sum_hessian":[1.4381659E7,7.336936E6,7.0447235E6,5.623116E6,1.7138198E6,4.391783E6,2.6529402E6,2.213906E6,3.40921E6,1.2013446E6,5.1247516E5,2.1759075E6,2.2158755E6,1.5487672E6,1.1041731E6,7.105464E5,1.5033596E6,2.483847E6,9.253631E5,3.3418488E5,8.671597E5,2.7326856E5,2.3920658E5,1.8134911E6,3.624163E5,1.3823776E6,8.334979E5,1.1457315E6,4.030357E5,7.585216E5,3.456515E5,6.772165E5,3.332986E4,1.00381525E6,4.995444E5,1.7693942E6,7.144526E5,7.725188E5,1.5284433E5,3.121925E5,2.1992348E4,4.913621E5,3.7579762E5,1.1990291E5,1.5336567E5,1.6251112E5,7.6695445E4,1.4237226E6,3.8976853E5,2.3137545E5,1.31040875E5,1.0157594E6,3.6661828E5,7.8691656E5,4.65813E4,6.754943E5,4.7023725E5,3.3559697E5,6.743871E4,5.093177E5,2.4920395E5,1.7522036E5,1.7043114E5],"tree_param":{"num_deleted":"0","num_feature":"10","num_nodes":"63","size_leaf_vector":"1"}},{"base_weights":[-2.4708602E-4,2.3154795E-1,-4.7367436E-1,3.56393E-1,-5.3035295E-1,-1.6222149E-1,-7.3606795E-1,-4.719709E-1,5.0251263E-1,-2.978307E-1,-9.237906E-1,-5.956127E-1,4.356637E-1,-8.9226073E-1,-3.99141E-1,-8.4607214E-1,1.2339198E-1,7.228464E-1,2.8404003E-1,1.09527186E-1,-4.9786198E-1,-7.920455E-1,-1.1038996E0,-7.151156E-1,5.510091E-1,7.165934E-1,2.235204E-1,-9.4340295E-1,6.88026E-2,-1.1077099E-1,-8.923891E-1,-4.952337E-2,6.9414027E-4,2.5724156E-2,-1.5791597E-2,2.3607932E-2,4.2982586E-2,-8.6311465E-3,2.314703E-2,-4.5384344E-2,1.0016362E-2,-3.1164143E-2,-2.5081563E-5,-2.4673754E-2,-4.5593895E-2,-6.0602564E-2,-4.8487544E-2,-5.4054625E-2,-2.254167E-2,-9.40181E-3,3.925098E-2,1.9727066E-2,3.9915748E-2,6.349441E-5,2.7659083E-2,-5.7820853E-2,-3.9999407E-2,4.8215803E-2,-2.1437248E-2,-1.4902646E-2,1.7568393E-2,-3.618053E-2,-5.55889E-2],"categories":[],"categories_nodes":[],"categories_segments":[],"categories_sizes":[],"default_left":[0,0,0,0,0,0,0,0,0,0,0,0,0,0,0,0,0,0,0,0,0,0,0,0,0,0,0,0,0,0,0,0,0,0,0,0,0,0,0,0,0,0,0,0,0,0,0,0,0,0,0,0,0,0,0,0,0,0,0,0,0,0,0],"id":11,"left_children":[1,3,5,7,9,11,13,15,17,19,21,23,25,27,29,31,33,35,37,39,41,43,45,47,49,51,53,55,57,59,61,-1,-1,-1,-1,-1,-1,-1,-1,-1,-1,-1,-1,-1,-1,-1,-1,-1,-1,-1,-1,-1,-1,-1,-1,-1,-1,-1,-1,-1,-1,-1,-1],"loss_changes":[1.5673319E6,9.120124E5,3.8364275E5,9.971486E5,1.2349303E5,5.562084E5,1.34083E5,2.7512838E5,3.3709675E5,6.913655E4,1.1897594E4,1.7052262E5,5.3761375E4,8.55645E4,1.14789695E5,9.419831E4,8.18818E4,1.19573625E5,2.8727153E5,2.5808744E4,3.549633E4,1.036125E4,3.0722188E3,1.09004875E5,2.0314023E4,1.0214359E4,3.7656766E4,5.0494E4,3.9191168E4,4.407871E4,1.1024078E4,0E0,0E0,0E0,0E0,0E0,0E0,0E0,0E0,0E0,0E0,0E0,0E0,0E0,0E0,0E0,0E0,0E0,0E0,0E0,0E0,0E0,0E0,0E0,0E0,0E0,0E0,0E0,0E0,0E0,0E0,0E0,0E0],"parents":[2147483647,0,0,1,1,2,2,3,3,4,4,5,5,6,6,7,7,8,8,9,9,10,10,11,11,12,12,13,13,14,14,15,15,16,16,17,17,18,18,19,19,20,20,21,21,22,22,23,23,24,24,25,25,26,26,27,27,28,28,29,29,30,30],"right_children":[2,4,6,8,10,12,14,16,18,20,22,24,26,28,30,32,34,36,38,40,42,44,46,48,50,52,54,56,58,60,62,-1,-1,-1,-1,-1,-1,-1,-1,-1,-1,-1,-1,-1,-1,-1,-1,-1,-1,-1,-1,-1,-1,-1,-1,-1,-1,-1,-1,-1,-1,-1,-1],"split_conditions":[2.5881904E-1,2E1,4.3E0,-7.0710677E-1,2.9E1,1.2246469E-16,8.660254E-1,8.660254E-1,6.3E0,-5E-1,3.8E1,7.16E2,1.4E0,1.156E3,1.7E1,4.86E2,3.2E0,0E0,2.5881904E-1,-2.5881904E-1,4.0944E2,-5E-1,-1.8369701E-16,6.123234E-17,6.123234E-17,5E-1,8.660254E-1,-1.8369701E-16,-3.09017E-1,3.0609E2,6.9392033E0,-4.952337E-2,6.9414027E-4,2.5724156E-2,-1.5791597E-2,2.3607932E-2,4.2982586E-2,-8.6311465E-3,2.314703E-2,-4.5384344E-2,1.0016362E-2,-3.1164143E-2,-2.5081563E-5,-2.4673754E-2,-4.5593895E-2,-6.0602564E-2,-4.8487544E-2,-5.4054625E-2,-2.254167E-2,-9.40181E-3,3.925098E-2,1.9727066E-2,3.9915748E-2,6.349441E-5,2.7659083E-2,-5.7820853E-2,-3.9999407E-2,4.8215803E-2,-2.1437248E-2,-1.4902646E-2,1.7568393E-2,-3.618053E-2,-5.55889E-2],"split_indices":[6,0,0,5,0,5,5,8,0,7,0,4,0,4,0,4,0,5,5,5,4,7,8,8,8,5,5,8,3,4,1,0,0,0,0,0,0,0,0,0,0,0,0,0,0,0,0,0,0,0,0,0,0,0,0,0,0,0,0,0,0,0,0],"split_type":[0,0,0,0,0,0,0,0,0,0,0,0,0,0,0,0,0,0,0,0,0,0,0,0,0,0,0,0,0,0,0,0,0,0,0,0,0,0,0,0,0,0,0,0,0,0,0,0,0,0,0,0,0,0,0,0,0,0,0,0,0,0,0],"sum_hessian":[1.4282475E7,9.58806E6,4.6944155E6,8.238156E6,1.3499036E6,2.1465412E6,2.5478745E6,1.2352759E6,7.0028805E6,8.484626E5,5.01441E5,1.2444629E6,9.0207825E5,1.7408491E6,8.070253E5,7.5860175E5,4.766742E5,3.4865882E6,3.5162922E6,2.794241E5,5.690385E5,2.8960662E5,2.1183436E5,1.1270049E6,1.1745805E5,3.881157E5,5.139626E5,1.6528918E6,8.795732E4,5.0928238E5,2.9774294E5,6.4953756E5,1.09064164E5,2.5215323E5,2.2452095E5,1.2309494E6,2.2556388E6,9.897776E5,2.5265145E6,2.2897635E4,2.5652645E5,4.544406E5,1.1459792E5,8.294606E4,2.0666056E5,1.1727682E5,9.455754E4,4.7257788E5,6.54427E5,2.8247566E4,8.921048E4,7.855365E4,3.0956203E5,3.069945E5,2.0696808E5,6.6506456E5,9.8782725E5,3.1414623E4,5.65427E4,3.6241422E5,1.4686814E5,1.6828417E5,1.2945878E5],"tree_param":{"num_deleted":"0","num_feature":"10","num_nodes":"63","size_leaf_vector":"1"}},{"base_weights":[-2.7444292E-4,3.0990556E-1,-3.2452863E-1,5.041247E-1,-1.67947E-1,-5.848987E-1,1.0335777E-1,1.8566869E-1,7.2470677E-1,2.9142516E-2,-6.759261E-1,-9.0621394E-1,-2.7586067E-1,5.499196E-1,-3.779819E-1,-4.637991E-1,4.8566628E-1,8.2631737E-1,3.1618857E-1,-5.137702E-1,2.537804E-1,-4.7936982E-1,-9.775633E-1,-1.0127659E0,-3.8433635E-1,-7.326559E-1,-4.2302772E-2,6.5993816E-1,-1.231271E-1,-1.917648E-1,-8.893375E-1,1.497014E-3,-3.742446E-2,3.650282E-2,4.340523E-3,3.699644E-2,5.2242137E-2,1.0998972E-2,4.4820737E-2,-2.913414E-2,2.7893046E-2,2.0592531E-2,-1.746972E-2,-9.816745E-3,-3.545585E-2,-4.3578595E-2,-6.0246784E-2,-5.4531734E-2,-3.665121E-2,-4.711296E-3,-4.5267846E-2,-4.676855E-2,-1.5034552E-2,-1.2635504E-2,2.4085017E-2,4.1650195E-2,2.2290727E-2,-1.47960335E-2,3.7301533E-2,1.9906766E-3,-3.361569E-2,-3.5527527E-2,-5.3768765E-2],"categories":[],"categories_nodes":[],"categories_segments":[],"categories_sizes":[],"default_left":[0,0,0,0,0,0,0,0,0,0,0,0,0,0,0,0,0,0,0,0,0,0,0,0,0,0,0,0,0,0,0,0,0,0,0,0,0,0,0,0,0,0,0,0,0,0,0,0,0,0,0,0,0,0,0,0,0,0,0,0,0,0,0],"id":12,"left_children":[1,3,5,7,9,11,13,15,17,19,21,23,25,27,29,31,33,35,37,39,41,43,45,47,49,51,53,55,57,59,61,-1,-1,-1,-1,-1,-1,-1,-1,-1,-1,-1,-1,-1,-1,-1,-1,-1,-1,-1,-1,-1,-1,-1,-1,-1,-1,-1,-1,-1,-1,-1,-1],"loss_changes":[1.4267331E6,6.728655E5,7.7266294E5,3.6210988E5,2.0976275E5,4.2814612E5,5.6395556E5,4.110053E5,1.264155E5,1.840971E5,3.472297E4,1.17545125E5,2.3448358E5,1.00779625E5,1.2023567E5,9.368736E4,1.4065328E5,4.603975E4,3.3862734E4,3.2625562E4,1.0180071E5,2.3058336E4,5.5675625E3,3.82385E4,5.4175254E4,6.5110656E4,1.6034002E5,4.3349188E4,2.8718432E4,1.0300568E5,1.1210594E4,0E0,0E0,0E0,0E0,0E0,0E0,0E0,0E0,0E0,0E0,0E0,0E0,0E0,0E0,0E0,0E0,0E0,0E0,0E0,0E0,0E0,0E0,0E0,0E0,0E0,0E0,0E0,0E0,0E0,0E0,0E0,0E0],"parents":[2147483647,0,0,1,1,2,2,3,3,4,4,5,5,6,6,7,7,8,8,9,9,10,10,11,11,12,12,13,13,14,14,15,15,16,16,17,17,18,18,19,19,20,20,21,21,22,22,23,23,24,24,25,25,26,26,27,27,28,28,29,29,30,30],"right_children":[2,4,6,8,10,12,14,16,18,20,22,24,26,28,30,32,34,36,38,40,42,44,46,48,50,52,54,56,58,60,62,-1,-1,-1,-1,-1,-1,-1,-1,-1,-1,-1,-1,-1,-1,-1,-1,-1,-1,-1,-1,-1,-1,-1,-1,-1,-1,-1,-1,-1,-1,-1,-1],"split_conditions":[-2.5881904E-1,1.27E1,8.660254E-1,0E0,2.41E1,5E-1,1.1E1,6.123234E-17,9.20624E0,2.5881904E-1,3.4E1,4.62E2,-2.4492937E-16,1.1185581E1,2.4E1,1.14E2,4.1E0,3.2818E2,4.86E2,1.156E3,1.0287973E1,-2.4492937E-16,4.7E1,5E-1,1.04E1,1.2246469E-16,3.57E2,5E0,4.86E2,8.953069E0,1.2246469E-16,1.497014E-3,-3.742446E-2,3.650282E-2,4.340523E-3,3.699644E-2,5.2242137E-2,1.0998972E-2,4.4820737E-2,-2.913414E-2,2.7893046E-2,2.0592531E-2,-1.746972E-2,-9.816745E-3,-3.545585E-2,-4.3578595E-2,-6.0246784E-2,-5.4531734E-2,-3.665121E-2,-4.711296E-3,-4.5267846E-2,-4.676855E-2,-1.5034552E-2,-1.2635504E-2,2.4085017E-2,4.1650195E-2,2.2290727E-2,-1.47960335E-2,3.7301533E-2,1.9906766E-3,-3.361569E-2,-3.5527527E-2,-5.3768765E-2],"split_indices":[6,0,5,5,0,8,0,8,1,5,0,4,7,1,0,4,0,4,4,4,1,7,0,5,0,5,4,0,4,1,7,0,0,0,0,0,0,0,0,0,0,0,0,0,0,0,0,0,0,0,0,0,0,0,0,0,0,0,0,0,0,0,0],"split_type":[0,0,0,0,0,0,0,0,0,0,0,0,0,0,0,0,0,0,0,0,0,0,0,0,0,0,0,0,0,0,0,0,0,0,0,0,0,0,0,0,0,0,0,0,0,0,0,0,0,0,0,0,0,0,0,0,0,0,0,0,0,0,0],"sum_hessian":[1.4185456E7,7.250072E6,6.935384E6,5.154905E6,2.0951672E6,4.3117015E6,2.6236825E6,2.1094615E6,3.0454432E6,1.5095008E6,5.8566644E5,2.1138608E6,2.1978405E6,1.3610091E6,1.2626735E6,6.665153E5,1.4429461E6,2.438832E6,6.066112E5,4.4178297E5,1.0677179E6,3.546003E5,2.3106611E5,1.7554491E6,3.584117E5,7.435652E5,1.4542754E6,1.1697911E6,1.9121806E5,9.256036E5,3.370698E5,2.437608E5,4.2275453E5,8.947233E5,5.482229E5,1.7478622E6,6.909698E5,5.2033428E5,8.627691E4,4.150905E5,2.6692445E4,8.4600975E5,2.2170811E5,1.5887616E5,1.9572416E5,1.5760306E5,7.3463055E4,1.3732024E6,3.8224678E5,2.3022233E5,1.2818935E5,5.0607166E5,2.3749353E5,1.03762844E6,4.16647E5,6.469168E5,5.2287428E5,1.5950767E5,3.1710385E4,6.2460506E5,3.009986E5,1.7188697E5,1.6518286E5],"tree_param":{"num_deleted":"0","num_feature":"10","num_nodes":"63","size_leaf_vector":"1"}},{"base_weights":[-2.8547927E-4,2.1307662E-1,-4.3802777E-1,3.5695904E-1,-3.5257256E-1,-1.402979E-1,-6.8995327E-1,-2.6486507E-1,5.3826135E-1,-1.6237964E-1,-8.226243E-1,-5.456853E-1,4.1324314E-1,-8.372316E-1,-3.771078E-1,-9.0293807E-1,5.4076914E-2,6.257991E-1,8.074522E-2,2.6598457E-1,-3.834255E-1,-6.558169E-1,-9.948262E-1,-6.588177E-1,5.232817E-1,6.830745E-1,2.0993672E-1,-8.869773E-1,7.8448154E-2,-5.8400217E-2,-7.660989E-1,-4.8106425E-2,2.3707114E-2,1.9874644E-2,-1.4329255E-2,1.8472048E-2,3.8426016E-2,-2.0943687E-3,3.5274398E-2,-4.240593E-2,1.7595274E-2,-2.5631351E-2,7.462182E-3,-1.7357528E-2,-3.9232515E-2,-5.6008287E-2,-4.2358916E-2,-5.085941E-2,-2.0413375E-2,1.2459054E-2,5.665616E-2,2.9686173E-2,4.791039E-2,1.550003E-3,2.9272387E-2,-5.46817E-2,-3.7519004E-2,4.9088348E-2,-1.8258274E-2,8.131137E-3,-2.0336598E-2,-2.6549136E-2,-4.754476E-2],"categories":[],"categories_nodes":[],"categories_segments":[],"categories_sizes":[],"default_left":[0,0,0,0,0,0,0,0,0,0,0,0,0,0,0,0,0,0,0,0,0,0,0,0,0,0,0,0,0,0,0,0,0,0,0,0,0,0,0,0,0,0,0,0,0,0,0,0,0,0,0,0,0,0,0,0,0,0,0,0,0,0,0],"id":13,"left_children":[1,3,5,7,9,11,13,15,17,19,21,23,25,27,29,31,33,35,37,39,41,43,45,47,49,51,53,55,57,59,61,-1,-1,-1,-1,-1,-1,-1,-1,-1,-1,-1,-1,-1,-1,-1,-1,-1,-1,-1,-1,-1,-1,-1,-1,-1,-1,-1,-1,-1,-1,-1,-1],"loss_changes":[1.3155639E6,7.707241E5,3.462082E5,8.511194E5,1.7167998E5,4.7472812E5,1.1519725E5,3.4683362E5,2.3410188E5,1.29454516E5,1.5889281E4,1.4768653E5,4.906267E4,7.7433375E4,9.921368E4,4.6296375E4,1.3293386E5,1.7951662E5,7.192283E4,4.4546367E4,6.2064188E4,1.1173961E4,5.0362188E3,9.915722E4,1.95364E4,9.446906E3,3.427179E4,4.5513375E4,3.5101168E4,3.3865953E4,1.5658328E4,0E0,0E0,0E0,0E0,0E0,0E0,0E0,0E0,0E0,0E0,0E0,0E0,0E0,0E0,0E0,0E0,0E0,0E0,0E0,0E0,0E0,0E0,0E0,0E0,0E0,0E0,0E0,0E0,0E0,0E0,0E0,0E0],"parents":[2147483647,0,0,1,1,2,2,3,3,4,4,5,5,6,6,7,7,8,8,9,9,10,10,11,11,12,12,13,13,14,14,15,15,16,16,17,17,18,18,19,19,20,20,21,21,22,22,23,23,24,24,25,25,26,26,27,27,28,28,29,29,30,30],"right_children":[2,4,6,8,10,12,14,16,18,20,22,24,26,28,30,32,34,36,38,40,42,44,46,48,50,52,54,56,58,60,62,-1,-1,-1,-1,-1,-1,-1,-1,-1,-1,-1,-1,-1,-1,-1,-1,-1,-1,-1,-1,-1,-1,-1,-1,-1,-1,-1,-1,-1,-1,-1,-1],"split_conditions":[2.5881904E-1,1.64E1,4.3E0,-5E-1,2.8E1,1.2246469E-16,8.660254E-1,6.123234E-17,1.035702E1,-5E-1,3.5E1,7.16E2,1.4E0,1.156E3,1.49E1,1.156E3,3.2E0,2.5881904E-1,4.0944E2,-2.5881904E-1,4.0944E2,-5E-1,-1.8369701E-16,6.123234E-17,6.75E2,3.57E2,3.0609E2,-1.8369701E-16,-4.848096E-1,6.9392033E0,2E1,-4.8106425E-2,2.3707114E-2,1.9874644E-2,-1.4329255E-2,1.8472048E-2,3.8426016E-2,-2.0943687E-3,3.5274398E-2,-4.240593E-2,1.7595274E-2,-2.5631351E-2,7.462182E-3,-1.7357528E-2,-3.9232515E-2,-5.6008287E-2,-4.2358916E-2,-5.085941E-2,-2.0413375E-2,1.2459054E-2,5.665616E-2,2.9686173E-2,4.791039E-2,1.550003E-3,2.9272387E-2,-5.46817E-2,-3.7519004E-2,4.9088348E-2,-1.8258274E-2,8.131137E-3,-2.0336598E-2,-2.6549136E-2,-4.754476E-2],"split_indices":[6,0,0,5,0,5,5,8,1,7,0,4,0,4,0,4,0,5,4,5,4,7,8,8,9,4,4,8,3,1,0,0,0,0,0,0,0,0,0,0,0,0,0,0,0,0,0,0,0,0,0,0,0,0,0,0,0,0,0,0,0,0,0],"split_type":[0,0,0,0,0,0,0,0,0,0,0,0,0,0,0,0,0,0,0,0,0,0,0,0,0,0,0,0,0,0,0,0,0,0,0,0,0,0,0,0,0,0,0,0,0,0,0,0,0,0,0,0,0,0,0,0,0,0,0,0,0,0,0],"sum_hessian":[1.4085622E7,9.469868E6,4.615754E6,7.5495205E6,1.9203476E6,2.1155558E6,2.5001982E6,1.7042716E6,5.845249E6,1.367165E6,5.531827E5,1.2212038E6,8.9435206E5,1.6999236E6,8.0027475E5,5.6797775E5,1.1362939E6,4.9064795E6,9.3876944E5,4.6535488E5,9.018101E5,2.8099506E5,2.7218762E5,1.1043292E6,1.16874586E5,3.8430044E5,5.100516E5,1.6123312E6,8.759236E4,4.3987678E5,3.6039797E5,5.44571E5,2.3406729E4,5.658596E5,5.7043425E5,1.7546866E6,3.151793E6,7.847329E5,1.5403658E5,3.3318453E4,4.320364E5,7.2577094E5,1.760392E5,8.274751E4,1.9824755E5,1.4721177E5,1.2497585E5,4.5439284E5,6.499364E5,8.063405E4,3.6240543E4,2.9009403E5,9.420638E4,3.454436E5,1.64608E5,6.4162106E5,9.707102E5,2.8848238E4,5.8744125E4,2.6911738E5,1.7075942E5,1.5860664E5,2.0179131E5],"tree_param":{"num_deleted":"0","num_feature":"10","num_nodes":"63","size_leaf_vector":"1"}},{"base_weights":[-3.1297698E-4,2.4050376E-1,-3.571548E-1,3.9719066E-1,-2.4880886E-1,-6.3117105E-1,-6.740881E-2,-3.9081678E-2,5.8553356E-1,-6.125036E-2,-7.020303E-1,-9.9844164E-1,-3.8433626E-1,4.3164134E-1,-4.9114427E-1,-6.6123265E-1,2.5325745E-1,6.532302E-1,6.91353E-2,-7.08387E-1,8.118171E-2,-5.3782636E-1,-9.490703E-1,-1.0325633E0,-2.2133054E-1,-5.8294386E-1,1.6819815E-1,6.8123275E-1,2.0775001E-1,-7.6682585E-1,-2.3980556E-1,-3.66482E-2,4.281987E-2,2.5356887E-2,-7.910411E-3,2.0736985E-2,3.8116623E-2,-2.0326383E-3,3.5741907E-2,-3.8698487E-2,6.234187E-3,1.7231299E-2,-1.2275991E-2,-1.515981E-2,-3.661764E-2,-5.359918E-2,-4.0106736E-2,-4.0664468E-2,-5.3946223E-2,4.583978E-2,-4.471337E-2,-3.6471397E-2,-4.2763837E-3,-1.8667538E-3,4.0778533E-2,2.8895786E-2,4.648612E-2,-1.937529E-4,2.4242112E-2,-2.8860226E-2,-5.3100646E-2,-4.4012518E-4,-3.4850534E-2],"categories":[],"categories_nodes":[],"categories_segments":[],"categories_sizes":[],"default_left":[0,0,0,0,0,0,0,0,0,0,0,0,0,0,0,0,0,0,0,0,0,0,0,0,0,0,0,0,0,0,0,0,0,0,0,0,0,0,0,0,0,0,0,0,0,0,0,0,0,0,0,0,0,0,0,0,0,0,0,0,0,0,0],"id":14,"left_children":[1,3,5,7,9,11,13,15,17,19,21,23,25,27,29,31,33,35,37,39,41,43,45,47,49,51,53,55,57,59,61,-1,-1,-1,-1,-1,-1,-1,-1,-1,-1,-1,-1,-1,-1,-1,-1,-1,-1,-1,-1,-1,-1,-1,-1,-1,-1,-1,-1,-1,-1,-1,-1],"loss_changes":[1.2016944E6,6.401377E5,4.4736188E5,5.196553E5,1.72148E5,2.6252975E5,5.7914175E5,3.4683925E5,1.544205E5,1.3202638E5,2.4044969E4,3.08645E4,1.9005777E5,7.027578E4,1.02625625E5,6.6364E4,1.3552678E5,1.0161525E5,3.629328E4,1.4117211E4,1.0104234E5,1.6252117E4,4.273672E3,1.1334375E4,3.7499082E4,9.282769E4,6.0931406E4,1.5266469E4,3.8873867E4,3.95365E4,8.182751E4,0E0,0E0,0E0,0E0,0E0,0E0,0E0,0E0,0E0,0E0,0E0,0E0,0E0,0E0,0E0,0E0,0E0,0E0,0E0,0E0,0E0,0E0,0E0,0E0,0E0,0E0,0E0,0E0,0E0,0E0,0E0,0E0],"parents":[2147483647,0,0,1,1,2,2,3,3,4,4,5,5,6,6,7,7,8,8,9,9,10,10,11,11,12,12,13,13,14,14,15,15,16,16,17,17,18,18,19,19,20,20,21,21,22,22,23,23,24,24,25,25,26,26,27,27,28,28,29,29,30,30],"right_children":[2,4,6,8,10,12,14,16,18,20,22,24,26,28,30,32,34,36,38,40,42,44,46,48,50,52,54,56,58,60,62,-1,-1,-1,-1,-1,-1,-1,-1,-1,-1,-1,-1,-1,-1,-1,-1,-1,-1,-1,-1,-1,-1,-1,-1,-1,-1,-1,-1,-1,-1,-1,-1],"split_conditions":[-1.8369701E-16,1.49E1,5E-1,-2.5881904E-1,2.59E1,6.123234E-17,7.8E0,6.123234E-17,1.15078E1,0E0,3.5E1,1.156E3,3.67E2,2.3E0,9.659258E-1,1.156E3,4.3E0,2.5881904E-1,4.86E2,1.156E3,-2.4492937E-16,-2.4492937E-16,-1.8369701E-16,-8.660254E-1,1.236E3,4.0673664E-1,1.156E3,3.25E2,9.659258E-1,1.64E1,2E1,-3.66482E-2,4.281987E-2,2.5356887E-2,-7.910411E-3,2.0736985E-2,3.8116623E-2,-2.0326383E-3,3.5741907E-2,-3.8698487E-2,6.234187E-3,1.7231299E-2,-1.2275991E-2,-1.515981E-2,-3.661764E-2,-5.359918E-2,-4.0106736E-2,-4.0664468E-2,-5.3946223E-2,4.583978E-2,-4.471337E-2,-3.6471397E-2,-4.2763837E-3,-1.8667538E-3,4.0778533E-2,2.8895786E-2,4.648612E-2,-1.937529E-4,2.4242112E-2,-2.8860226E-2,-5.3100646E-2,-4.4012518E-4,-3.4850534E-2],"split_indices":[6,0,5,5,0,8,0,8,1,5,0,4,4,0,5,4,0,5,4,4,7,7,8,7,4,2,4,4,5,0,0,0,0,0,0,0,0,0,0,0,0,0,0,0,0,0,0,0,0,0,0,0,0,0,0,0,0,0,0,0,0,0,0],"split_type":[0,0,0,0,0,0,0,0,0,0,0,0,0,0,0,0,0,0,0,0,0,0,0,0,0,0,0,0,0,0,0,0,0,0,0,0,0,0,0,0,0,0,0,0,0,0,0,0,0,0,0,0,0,0,0,0,0,0,0,0,0,0,0],"sum_hessian":[1.3984005E7,8.349379E6,5.634626E6,6.324241E6,2.0251381E6,2.895919E6,2.738707E6,1.9069755E6,4.4172655E6,1.432374E6,5.927642E5,1.1639905E6,1.7319285E6,1.2575915E6,1.4811156E6,6.09611E5,1.2973645E6,3.905304E6,5.1196144E5,2.5838844E5,1.1739856E6,3.560837E5,2.366805E5,1.115031E6,4.8959574E4,1.2739935E6,4.579349E5,5.946645E5,6.62927E5,7.063507E5,7.747649E5,5.820984E5,2.7512586E4,8.023208E5,4.950437E5,1.225797E6,2.679507E6,4.3756394E5,7.439752E4,2.3953161E5,1.8856822E4,6.4991206E5,5.240735E5,1.6140538E5,1.946783E5,1.28871625E5,1.0780888E5,1.9460886E5,9.204221E5,1.819178E4,3.0767795E4,9.84166E5,2.898275E5,3.4758247E5,1.1035244E5,4.200284E5,1.7463608E5,3.7586594E5,2.8706106E5,4.300801E5,2.7627062E5,5.14709E5,2.6005588E5],"tree_param":{"num_deleted":"0","num_feature":"10","num_nodes":"63","size_leaf_vector":"1"}},{"base_weights":[-3.3288234E-4,2.7511624E-1,-2.896873E-1,4.4966075E-1,-1.5186603E-1,-5.608538E-1,3.992361E-2,1.6882186E-1,6.473084E-1,1.8167388E-2,-6.006292E-1,-9.343512E-1,-3.1679952E-1,4.2453116E-1,-4.065927E-1,-5.400816E-1,4.0011144E-1,7.639221E-1,3.3068582E-1,-4.709666E-1,2.2037435E-1,-4.2102426E-1,-8.869098E-1,-1.0104754E0,-6.000575E-1,-4.6529523E-1,3.2621136E-1,5.9574085E-1,8.172322E-2,-2.1587199E-1,-7.797609E-1,-4.957842E-2,-9.943618E-3,3.072742E-2,3.1161497E-3,3.399498E-2,4.8715502E-2,1.1900854E-2,4.0137045E-2,-3.81903E-2,-1.2355871E-2,2.1978859E-2,-7.885191E-3,-8.394615E-3,-3.1540245E-2,-3.8911033E-2,-5.6194007E-2,-4.2888906E-2,-5.427907E-2,-8.123031E-3,-4.0960632E-2,-4.5043193E-3,-3.5638895E-2,4.4524944E-3,4.0167496E-2,1.6694492E-2,3.790131E-2,-2.669437E-3,3.7970003E-2,-3.4696974E-2,-1.6103184E-3,-4.46445E-2,-7.570618E-3],"categories":[],"categories_nodes":[],"categories_segments":[],"categories_sizes":[],"default_left":[0,0,0,0,0,0,0,0,0,0,0,0,0,0,0,0,0,0,0,0,0,0,0,0,0,0,0,0,0,0,0,0,0,0,0,0,0,0,0,0,0,0,0,0,0,0,0,0,0,0,0,0,0,0,0,0,0,0,0,0,0,0,0],"id":15,"left_children":[1,3,5,7,9,11,13,15,17,19,21,23,25,27,29,31,33,35,37,39,41,43,45,47,49,51,53,55,57,59,61,-1,-1,-1,-1,-1,-1,-1,-1,-1,-1,-1,-1,-1,-1,-1,-1,-1,-1,-1,-1,-1,-1,-1,-1,-1,-1,-1,-1,-1,-1,-1,-1],"loss_changes":[1.106176E6,5.299093E5,6.0497075E5,2.80149E5,1.5743033E5,3.3849975E5,5.246559E5,3.4182675E5,1.09375125E5,1.4798942E5,2.9149281E4,3.734575E4,2.1445284E5,9.633191E4,1.0061742E5,7.9007234E4,1.1386158E5,3.8269625E4,3.4880055E4,2.8687508E4,8.7734484E4,1.8498996E4,5.62825E3,1.3708125E4,2.610489E4,1.6942634E5,4.7681215E4,4.6515188E4,5.0056336E4,8.214859E4,3.398978E4,0E0,0E0,0E0,0E0,0E0,0E0,0E0,0E0,0E0,0E0,0E0,0E0,0E0,0E0,0E0,0E0,0E0,0E0,0E0,0E0,0E0,0E0,0E0,0E0,0E0,0E0,0E0,0E0,0E0,0E0,0E0,0E0],"parents":[2147483647,0,0,1,1,2,2,3,3,4,4,5,5,6,6,7,7,8,8,9,9,10,10,11,11,12,12,13,13,14,14,15,15,16,16,17,17,18,18,19,19,20,20,21,21,22,22,23,23,24,24,25,25,26,26,27,27,28,28,29,29,30,30],"right_children":[2,4,6,8,10,12,14,16,18,20,22,24,26,28,30,32,34,36,38,40,42,44,46,48,50,52,54,56,58,60,62,-1,-1,-1,-1,-1,-1,-1,-1,-1,-1,-1,-1,-1,-1,-1,-1,-1,-1,-1,-1,-1,-1,-1,-1,-1,-1,-1,-1,-1,-1,-1,-1],"split_conditions":[-2.5881904E-1,1.27E1,7.0710677E-1,0E0,2.41E1,6.123234E-17,1.1E1,-1.8369701E-16,8.05546E0,2.5881904E-1,3.4E1,4.05E2,4.86E2,8.05546E0,8.953069E0,4.60312E0,4.1E0,3.2818E2,4.05E2,-2.5881904E-1,6.9392033E0,-2.4492937E-16,4.7E1,2.1E0,3.6E0,2.3E0,1.156E3,9.659258E-1,4.62E2,9.659258E-1,4.0944E2,-4.957842E-2,-9.943618E-3,3.072742E-2,3.1161497E-3,3.399498E-2,4.8715502E-2,1.1900854E-2,4.0137045E-2,-3.81903E-2,-1.2355871E-2,2.1978859E-2,-7.885191E-3,-8.394615E-3,-3.1540245E-2,-3.8911033E-2,-5.6194007E-2,-4.2888906E-2,-5.427907E-2,-8.123031E-3,-4.0960632E-2,-4.5043193E-3,-3.5638895E-2,4.4524944E-3,4.0167496E-2,1.6694492E-2,3.790131E-2,-2.669437E-3,3.7970003E-2,-3.4696974E-2,-1.6103184E-3,-4.46445E-2,-7.570618E-3],"split_indices":[6,0,5,5,0,8,0,8,1,5,0,4,4,1,1,1,0,4,4,5,1,7,0,0,0,0,4,5,4,5,4,0,0,0,0,0,0,0,0,0,0,0,0,0,0,0,0,0,0,0,0,0,0,0,0,0,0,0,0,0,0,0,0],"split_type":[0,0,0,0,0,0,0,0,0,0,0,0,0,0,0,0,0,0,0,0,0,0,0,0,0,0,0,0,0,0,0,0,0,0,0,0,0,0,0,0,0,0,0,0,0,0,0,0,0,0,0,0,0,0,0,0,0,0,0,0,0,0,0],"sum_hessian":[1.3878825E7,7.1102585E6,6.768566E6,5.047081E6,2.0631778E6,3.71351E6,3.0550558E6,2.0847905E6,2.9622905E6,1.4962569E6,5.6692094E5,1.4675651E6,2.245945E6,1.6413104E6,1.4137452E6,5.1286275E5,1.5719278E6,2.1649332E6,7.973572E5,4.376325E5,1.0586244E6,3.48367E5,2.1855392E5,1.1953598E6,2.7220534E5,1.8245802E6,4.2136484E5,1.09462E6,5.4669044E5,9.355839E5,4.7816144E5,2.207566E5,2.9210616E5,9.615254E5,6.104023E5,1.5470805E6,6.1785275E5,6.665155E5,1.30841625E5,1.8959802E5,2.4803448E5,6.701079E5,3.885165E5,1.5787219E5,1.9049481E5,1.498348E5,6.8719125E4,3.9411006E5,8.012497E5,9.0834266E4,1.8137108E5,7.2516206E5,1.0994181E6,2.814643E5,1.3990052E5,4.1883044E5,6.7578956E5,4.5581344E5,9.087698E4,2.5967281E5,6.7591106E5,4.052068E5,7.2954625E4],"tree_param":{"num_deleted":"0","num_feature":"10","num_nodes":"63","size_leaf_vector":"1"}},{"base_weights":[-3.454143E-4,1.8775642E-1,-3.8902062E-1,2.7756843E-1,-5.259574E-1,-6.198304E-2,-5.868963E-1,-4.1258484E-1,3.9601707E-1,-3.4379336E-1,-8.386509E-1,-4.4404233E-1,4.5761523E-1,-6.9029665E-1,-1.7471786E-1,-7.4684775E-1,1.0607633E-1,5.7656795E-1,1.5426853E-1,-1.12378046E-1,-5.6264055E-1,-9.8732996E-1,-6.78821E-1,-5.867388E-1,3.1776604E-1,3.411706E-1,7.466252E-1,-8.740685E-1,-4.5121667E-1,-2.2082355E-2,-7.755041E-1,-4.412707E-2,9.881457E-4,2.2258371E-2,-1.3402331E-2,2.4637515E-2,4.5717906E-2,2.6857538E-2,-2.0514247E-3,-4.930323E-2,-8.6132623E-4,-3.384005E-2,-6.747283E-3,3.9384197E-2,-4.9849354E-2,-2.7119506E-2,-4.640571E-2,-4.713848E-2,-1.7573988E-2,2.3720067E-3,4.512109E-2,2.6982361E-2,4.927058E-3,3.2939788E-2,4.7345586E-2,-5.4975312E-2,-3.6916584E-2,-8.053176E-3,-3.855553E-2,-1.2972312E-2,2.0001097E-2,-9.033901E-3,-4.8623078E-2],"categories":[],"categories_nodes":[],"categories_segments":[],"categories_sizes":[],"default_left":[0,0,0,0,0,0,0,0,0,0,0,0,0,0,0,0,0,0,0,0,0,0,0,0,0,0,0,0,0,0,0,0,0,0,0,0,0,0,0,0,0,0,0,0,0,0,0,0,0,0,0,0,0,0,0,0,0,0,0,0,0,0,0],"id":16,"left_children":[1,3,5,7,9,11,13,15,17,19,21,23,25,27,29,31,33,35,37,39,41,43,45,47,49,51,53,55,57,59,61,-1,-1,-1,-1,-1,-1,-1,-1,-1,-1,-1,-1,-1,-1,-1,-1,-1,-1,-1,-1,-1,-1,-1,-1,-1,-1,-1,-1,-1,-1,-1,-1],"loss_changes":[1.00714825E6,5.950466E5,2.9072912E5,6.740506E5,5.9102594E4,3.3620366E5,1.1929319E5,2.0940367E5,3.0717838E5,3.3204664E4,9.075781E3,1.0609378E5,2.4150203E4,9.8315E4,5.1476883E4,7.640469E4,6.0051305E4,1.14065E5,2.2499228E5,2.6492006E4,1.6452805E4,3.3926562E3,6.2601797E3,6.8848875E4,2.4334447E4,2.4633E4,3.6248047E3,3.8714E4,9.02658E4,4.484923E4,1.3323258E4,0E0,0E0,0E0,0E0,0E0,0E0,0E0,0E0,0E0,0E0,0E0,0E0,0E0,0E0,0E0,0E0,0E0,0E0,0E0,0E0,0E0,0E0,0E0,0E0,0E0,0E0,0E0,0E0,0E0,0E0,0E0,0E0],"parents":[2147483647,0,0,1,1,2,2,3,3,4,4,5,5,6,6,7,7,8,8,9,9,10,10,11,11,12,12,13,13,14,14,15,15,16,16,17,17,18,18,19,19,20,20,21,21,22,22,23,23,24,24,25,25,26,26,27,27,28,28,29,29,30,30],"right_children":[2,4,6,8,10,12,14,16,18,20,22,24,26,28,30,32,34,36,38,40,42,44,46,48,50,52,54,56,58,60,62,-1,-1,-1,-1,-1,-1,-1,-1,-1,-1,-1,-1,-1,-1,-1,-1,-1,-1,-1,-1,-1,-1,-1,-1,-1,-1,-1,-1,-1,-1,-1,-1],"split_conditions":[2.5881904E-1,2.2E1,3.2E0,-7.0710677E-1,3.1E1,1.2246469E-16,4.0944E2,8.660254E-1,8.1E0,-2.4492937E-16,-1.8369701E-16,4.86E2,3.2818E2,7.0710677E-1,1.98E1,4.86E2,3.2E0,3.87E2,-5E-1,-2.5881904E-1,4.0944E2,7E0,1.2246469E-16,6.123234E-17,1.156E3,1.6E0,7.88E2,-1.8369701E-16,1.3E1,7.0710677E-1,-6.293204E-1,-4.412707E-2,9.881457E-4,2.2258371E-2,-1.3402331E-2,2.4637515E-2,4.5717906E-2,2.6857538E-2,-2.0514247E-3,-4.930323E-2,-8.6132623E-4,-3.384005E-2,-6.747283E-3,3.9384197E-2,-4.9849354E-2,-2.7119506E-2,-4.640571E-2,-4.713848E-2,-1.7573988E-2,2.3720067E-3,4.512109E-2,2.6982361E-2,4.927058E-3,3.2939788E-2,4.7345586E-2,-5.4975312E-2,-3.6916584E-2,-8.053176E-3,-3.855553E-2,-1.2972312E-2,2.0001097E-2,-9.033901E-3,-4.8623078E-2],"split_indices":[6,0,0,5,0,5,4,8,0,7,8,4,4,5,0,4,0,4,7,5,4,9,7,8,4,0,4,8,0,5,3,0,0,0,0,0,0,0,0,0,0,0,0,0,0,0,0,0,0,0,0,0,0,0,0,0,0,0,0,0,0,0,0],"split_type":[0,0,0,0,0,0,0,0,0,0,0,0,0,0,0,0,0,0,0,0,0,0,0,0,0,0,0,0,0,0,0,0,0,0,0,0,0,0,0,0,0,0,0,0,0,0,0,0,0,0,0,0,0,0,0,0,0,0,0,0,0,0,0],"sum_hessian":[1.3775693E7,9.283086E6,4.4926075E6,8.2454935E6,1.03759225E6,1.6935712E6,2.7990365E6,1.2078469E6,7.0376465E6,6.556412E5,3.8195106E5,9.759545E5,7.1761675E5,2.2376835E6,5.6135294E5,7.344886E5,4.7335825E5,4.0287542E6,3.0088922E6,3.186709E5,3.3697028E5,1.978755E5,1.8407555E5,8.219861E5,1.5396836E5,5.115222E5,2.0609453E5,1.2651824E6,9.725011E5,4.476294E5,1.1372349E5,6.24032E5,1.1045664E5,2.483043E5,2.2505394E5,3.2278208E6,8.009335E5,1.01634125E6,1.9925511E6,3.1296387E4,2.873745E5,2.6597547E5,7.0994836E4,1.0702896E3,1.9680522E5,1.18969945E5,6.5105605E4,3.270461E5,4.9494003E5,1.0528777E5,4.8680582E4,2.8136103E5,2.3016117E5,1.4327152E5,6.282301E4,4.7547872E5,7.897037E5,5.0995678E5,4.625443E5,2.8651338E5,1.6111603E5,2.8289371E4,8.5434125E4],"tree_param":{"num_deleted":"0","num_feature":"10","num_nodes":"63","size_leaf_vector":"1"}},{"base_weights":[-3.738073E-4,2.5207654E-1,-2.6669496E-1,4.1308594E-1,-1.401209E-1,-5.5536354E-1,2.7974327E-3,1.4555767E-1,6.033572E-1,-5.451635E-1,2.6709376E-2,-9.253575E-1,-3.2186508E-1,4.4242328E-1,-3.3838627E-1,-5.263947E-1,3.6525682E-1,7.176315E-1,2.9658547E-1,-6.0533386E-1,2.1525365E-1,1.6502677E-1,-5.9827596E-1,-9.598455E-1,-1.856665E-1,-5.094104E-1,1.9403926E-1,5.1940715E-1,-8.031679E-2,-6.9480276E-1,-1.4359201E-1,-3.1353593E-2,4.5671213E-2,2.4569355E-2,-7.869501E-3,2.388686E-2,3.962533E-2,1.0472188E-2,3.738555E-2,-4.2620685E-2,-2.100841E-2,-2.606084E-2,4.1851874E-2,1.6923442E-2,-1.3237524E-2,-2.1380832E-2,-4.269534E-2,-3.660127E-2,-5.042667E-2,4.4525336E-2,-4.2994242E-2,-4.6025045E-2,-1.6820071E-2,-4.2175163E-2,1.6059324E-2,1.611973E-2,3.5424642E-2,-1.3032508E-2,3.7318066E-2,-2.5792262E-2,-4.9011253E-2,8.246745E-4,-3.6398083E-2],"categories":[],"categories_nodes":[],"categories_segments":[],"categories_sizes":[],"default_left":[0,0,0,0,0,0,0,0,0,0,0,0,0,0,0,0,0,0,0,0,0,0,0,0,0,0,0,0,0,0,0,0,0,0,0,0,0,0,0,0,0,0,0,0,0,0,0,0,0,0,0,0,0,0,0,0,0,0,0,0,0,0,0],"id":17,"left_children":[1,3,5,7,9,11,13,15,17,19,21,23,25,27,29,31,33,35,37,39,41,43,45,47,49,51,53,55,57,59,61,-1,-1,-1,-1,-1,-1,-1,-1,-1,-1,-1,-1,-1,-1,-1,-1,-1,-1,-1,-1,-1,-1,-1,-1,-1,-1,-1,-1,-1,-1,-1,-1],"loss_changes":[9.1975356E5,4.434813E5,5.1788772E5,2.5344244E5,1.3812072E5,2.7768656E5,5.16418E5,3.0549347E5,1.01998375E5,2.7283172E4,1.25150234E5,3.172525E4,1.90667E5,6.054228E4,1.3458652E5,7.391122E4,1.0280311E5,3.807775E4,3.1043602E4,2.5280016E4,2.0022922E4,8.8360125E4,1.144443E4,1.3179125E4,4.0198996E4,1.0278769E5,6.930876E4,4.884925E4,2.8789807E4,3.4991156E4,1.1725956E5,0E0,0E0,0E0,0E0,0E0,0E0,0E0,0E0,0E0,0E0,0E0,0E0,0E0,0E0,0E0,0E0,0E0,0E0,0E0,0E0,0E0,0E0,0E0,0E0,0E0,0E0,0E0,0E0,0E0,0E0,0E0,0E0],"parents":[2147483647,0,0,1,1,2,2,3,3,4,4,5,5,6,6,7,7,8,8,9,9,10,10,11,11,12,12,13,13,14,14,15,15,16,16,17,17,18,18,19,19,20,20,21,21,22,22,23,23,24,24,25,25,26,26,27,27,28,28,29,29,30,30],"right_children":[2,4,6,8,10,12,14,16,18,20,22,24,26,28,30,32,34,36,38,40,42,44,46,48,50,52,54,56,58,60,62,-1,-1,-1,-1,-1,-1,-1,-1,-1,-1,-1,-1,-1,-1,-1,-1,-1,-1,-1,-1,-1,-1,-1,-1,-1,-1,-1,-1,-1,-1,-1,-1],"split_conditions":[-2.5881904E-1,1.27E1,5E-1,0E0,2.5881904E-1,6.123234E-17,7.8E0,-1.8369701E-16,8.05546E0,1.156E3,2.8E1,1.156E3,3.67E2,1.15078E1,9.659258E-1,8.34E2,7.2E0,2.5881904E-1,4.05E2,-2.5881904E-1,4.61E2,8.953069E0,3.7E1,-8.660254E-1,1.236E3,-2.4492937E-16,-5E-1,9.659258E-1,4.86E2,1.64E1,2.4E1,-3.1353593E-2,4.5671213E-2,2.4569355E-2,-7.869501E-3,2.388686E-2,3.962533E-2,1.0472188E-2,3.738555E-2,-4.2620685E-2,-2.100841E-2,-2.606084E-2,4.1851874E-2,1.6923442E-2,-1.3237524E-2,-2.1380832E-2,-4.269534E-2,-3.660127E-2,-5.042667E-2,4.4525336E-2,-4.2994242E-2,-4.6025045E-2,-1.6820071E-2,-4.2175163E-2,1.6059324E-2,1.611973E-2,3.5424642E-2,-1.3032508E-2,3.7318066E-2,-2.5792262E-2,-4.9011253E-2,8.246745E-4,-3.6398083E-2],"split_indices":[6,0,5,5,5,8,0,8,1,4,0,4,4,1,5,4,0,5,4,5,9,1,0,7,4,7,7,5,4,0,0,0,0,0,0,0,0,0,0,0,0,0,0,0,0,0,0,0,0,0,0,0,0,0,0,0,0,0,0,0,0,0,0],"split_type":[0,0,0,0,0,0,0,0,0,0,0,0,0,0,0,0,0,0,0,0,0,0,0,0,0,0,0,0,0,0,0,0,0,0,0,0,0,0,0,0,0,0,0,0,0,0,0,0,0,0,0,0,0,0,0,0,0,0,0,0,0,0,0],"sum_hessian":[1.3680114E7,7.0229455E6,6.657169E6,4.9789355E6,2.0440098E6,3.2142275E6,3.4429415E6,2.0693528E6,2.909583E6,5.962904E5,1.4477194E6,1.2436218E6,1.9706058E6,1.5044328E6,1.9385089E6,5.0987938E5,1.5594734E6,2.1199045E6,7.896785E5,5.5256706E5,4.3723344E4,1.18538E6,2.6233928E5,1.1882209E6,5.5400844E4,1.4452265E6,5.253792E5,1.3113155E6,1.931172E5,6.850554E5,1.2534535E6,4.7655738E5,3.3321973E4,1.2562925E6,3.0318084E5,5.0426953E5,1.6156349E6,6.618363E5,1.2784222E5,2.3670755E5,3.158595E5,2.0015816E4,2.3707527E4,8.44551E5,3.4082906E5,1.57317E5,1.0502229E5,2.0922642E5,9.789945E5,2.1339252E4,3.406159E4,4.280716E5,1.01715494E6,5.7354145E4,4.6802503E5,6.421979E5,6.6911756E5,1.5853477E5,3.4582438E4,4.2105806E5,2.6399728E5,9.839152E5,2.6953828E5],"tree_param":{"num_deleted":"0","num_feature":"10","num_nodes":"63","size_leaf_vector":"1"}},{"base_weights":[-3.8605274E-4,1.7234388E-1,-3.5931095E-1,3.072427E-1,-2.3804298E-1,-1.0138457E-1,-5.8993495E-1,-2.1477468E-1,4.6623465E-1,-7.912931E-2,-6.360363E-1,-4.4188568E-1,3.5014597E-1,-7.081081E-1,-2.6978126E-1,-5.430085E-1,2.531686E-1,3.8518566E-1,8.413725E-1,3.0538014E-1,-2.7817434E-1,-4.6377522E-1,-8.33382E-1,-8.3631086E-1,-2.0588051E-1,5.9727085E-1,1.7227815E-1,-8.9464283E-1,-4.9816224E-1,-1.247237E-1,-7.522709E-1,-3.367698E-2,1.2095346E-2,2.6749283E-2,-4.1859034E-3,2.2660634E-2,-5.510402E-3,-6.702077E-2,4.2443264E-2,2.44625E-2,-5.093774E-3,-2.0305485E-2,1.295189E-2,-7.7476776E-3,-3.0063638E-2,-4.8753373E-2,-3.3840932E-2,-4.3903932E-2,2.2926424E-2,-3.7726086E-2,4.6637325E-4,2.24945E-2,3.745897E-2,1.0952574E-3,2.4603138E-2,-4.8619118E-2,-3.0519176E-2,-1.4417415E-2,-3.9187964E-2,-1.8365933E-2,1.2668989E-2,-1.6963748E-2,-4.6791602E-2],"categories":[],"categories_nodes":[],"categories_segments":[],"categories_sizes":[],"default_left":[0,0,0,0,0,0,0,0,0,0,0,0,0,0,0,0,0,0,0,0,0,0,0,0,0,0,0,0,0,0,0,0,0,0,0,0,0,0,0,0,0,0,0,0,0,0,0,0,0,0,0,0,0,0,0,0,0,0,0,0,0,0,0],"id":18,"left_children":[1,3,5,7,9,11,13,15,17,19,21,23,25,27,29,31,33,35,37,39,41,43,45,47,49,51,53,55,57,59,61,-1,-1,-1,-1,-1,-1,-1,-1,-1,-1,-1,-1,-1,-1,-1,-1,-1,-1,-1,-1,-1,-1,-1,-1,-1,-1,-1,-1,-1,-1,-1,-1],"loss_changes":[8.4179925E5,5.0747288E5,2.6240694E5,5.7258606E5,1.434274E5,3.2016688E5,8.811256E4,2.4738858E5,1.6078662E5,1.240359E5,2.199789E4,1.1050983E5,3.9351336E4,6.661719E4,4.3945156E4,9.698931E4,6.3041758E4,1.4655238E5,1.53605625E4,4.1393977E4,7.339248E4,1.4671164E4,6.6894844E3,2.4036062E4,8.769814E4,8.388172E3,2.5032846E4,1.9904438E4,4.795642E4,4.4281223E4,1.1002492E4,0E0,0E0,0E0,0E0,0E0,0E0,0E0,0E0,0E0,0E0,0E0,0E0,0E0,0E0,0E0,0E0,0E0,0E0,0E0,0E0,0E0,0E0,0E0,0E0,0E0,0E0,0E0,0E0,0E0,0E0,0E0,0E0],"parents":[2147483647,0,0,1,1,2,2,3,3,4,4,5,5,6,6,7,7,8,8,9,9,10,10,11,11,12,12,13,13,14,14,15,15,16,16,17,17,18,18,19,19,20,20,21,21,22,22,23,23,24,24,25,25,26,26,27,27,28,28,29,29,30,30],"right_children":[2,4,6,8,10,12,14,16,18,20,22,24,26,28,30,32,34,36,38,40,42,44,46,48,50,52,54,56,58,60,62,-1,-1,-1,-1,-1,-1,-1,-1,-1,-1,-1,-1,-1,-1,-1,-1,-1,-1,-1,-1,-1,-1,-1,-1,-1,-1,-1,-1,-1,-1,-1,-1],"split_conditions":[2.5881904E-1,1.49E1,5E0,-5E-1,2.59E1,1.2246469E-16,3.4915E2,8.660254E-1,4.05E2,-5E-1,3.3E1,6.123234E-17,1.4E0,7.0710677E-1,1.89E1,4.86E2,3.2E0,1.1185581E1,3E0,6.9392033E0,4.0944E2,-5E-1,-1.8369701E-16,1.156E3,-2.4492937E-16,8.660254E-1,3.0609E2,4.0673664E-1,1.5E1,7.0710677E-1,-4.848096E-1,-3.367698E-2,1.2095346E-2,2.6749283E-2,-4.1859034E-3,2.2660634E-2,-5.510402E-3,-6.702077E-2,4.2443264E-2,2.44625E-2,-5.093774E-3,-2.0305485E-2,1.295189E-2,-7.7476776E-3,-3.0063638E-2,-4.8753373E-2,-3.3840932E-2,-4.3903932E-2,2.2926424E-2,-3.7726086E-2,4.6637325E-4,2.24945E-2,3.745897E-2,1.0952574E-3,2.4603138E-2,-4.8619118E-2,-3.0519176E-2,-1.4417415E-2,-3.9187964E-2,-1.8365933E-2,1.2668989E-2,-1.6963748E-2,-4.6791602E-2],"split_indices":[6,0,0,5,0,5,4,8,4,7,0,8,0,5,0,4,0,1,9,1,4,7,8,4,7,8,4,2,0,5,3,0,0,0,0,0,0,0,0,0,0,0,0,0,0,0,0,0,0,0,0,0,0,0,0,0,0,0,0,0,0,0,0],"split_type":[0,0,0,0,0,0,0,0,0,0,0,0,0,0,0,0,0,0,0,0,0,0,0,0,0,0,0,0,0,0,0,0,0,0,0,0,0,0,0,0,0,0,0,0,0,0,0,0,0,0,0,0,0,0,0,0,0,0,0,0,0,0,0],"sum_hessian":[1.3578046E7,9.16666E6,4.411386E6,6.89891E6,2.2677498E6,2.0824296E6,2.3289565E6,1.6106552E6,5.288255E6,1.6206471E6,6.471026E5,1.1871755E6,8.952541E5,1.7010674E6,6.278891E5,9.466427E5,6.640125E5,4.348712E6,9.3954275E5,5.5278756E5,1.0678595E6,3.455121E5,3.0159053E5,4.444249E5,7.4275056E5,3.746805E5,5.2057362E5,9.007539E5,8.0031356E5,4.8275347E5,1.4513564E5,8.116636E5,1.349791E5,3.615572E5,3.0245534E5,3.8236518E6,5.250603E5,3.2149746E3,9.363278E5,3.8084256E5,1.7194497E5,8.624662E5,2.0539333E5,1.0644254E5,2.3906955E5,1.5831488E5,1.4327566E5,4.3053734E5,1.3887574E4,2.092629E5,5.334876E5,1.9017642E5,1.8450408E5,3.5407653E5,1.664971E5,7.073145E5,1.9343936E5,4.6136997E5,3.3894356E5,2.9407322E5,1.8868027E5,4.4659246E4,1.0047639E5],"tree_param":{"num_deleted":"0","num_feature":"10","num_nodes":"63","size_leaf_vector":"1"}},{"base_weights":[-4.026903E-4,2.3203252E-1,-2.464565E-1,4.1564938E-1,-6.770811E-2,-5.1658404E-1,3.4723156E-3,1.790928E-1,6.02155E-1,-4.7317767E-1,1.1405233E-1,-8.792678E-1,-2.9420826E-1,4.1128138E-1,-3.1348574E-1,-3.869275E-1,4.30991E-1,7.2970724E-1,3.618779E-1,-5.2743936E-1,3.0923638E-1,2.6386642E-1,-3.9312193E-1,-9.1306645E-1,-1.7559308E-1,-4.72563E-1,1.9125012E-1,4.8435676E-1,-8.056568E-2,-6.486052E-1,-1.3279144E-1,5.725276E-3,-3.4197744E-2,3.1784773E-2,9.955629E-3,2.5552645E-2,4.0305443E-2,2.2130046E-2,-2.214221E-3,-3.8297366E-2,-1.734103E-2,-1.8709479E-2,4.254764E-2,1.8468158E-2,-1.7120134E-2,-1.2056889E-2,-3.8138285E-2,-3.415799E-2,-4.813361E-2,4.212501E-2,-4.101924E-2,-4.3193277E-2,-1.5486725E-2,-3.925638E-2,1.5521918E-2,1.49336755E-2,3.3258174E-2,-1.01842955E-2,4.897018E-2,-2.389877E-2,-4.632729E-2,2.2022433E-3,-3.2532457E-2],"categories":[],"categories_nodes":[],"categories_segments":[],"categories_sizes":[],"default_left":[0,0,0,0,0,0,0,0,0,0,0,0,0,0,0,0,0,0,0,0,0,0,0,0,0,0,0,0,0,0,0,0,0,0,0,0,0,0,0,0,0,0,0,0,0,0,0,0,0,0,0,0,0,0,0,0,0,0,0,0,0,0,0],"id":19,"left_children":[1,3,5,7,9,11,13,15,17,19,21,23,25,27,29,31,33,35,37,39,41,43,45,47,49,51,53,55,57,59,61,-1,-1,-1,-1,-1,-1,-1,-1,-1,-1,-1,-1,-1,-1,-1,-1,-1,-1,-1,-1,-1,-1,-1,-1,-1,-1,-1,-1,-1,-1,-1,-1],"loss_changes":[7.710872E5,3.81582E5,4.4216734E5,1.8968519E5,1.9410272E5,2.5385294E5,4.3972253E5,2.702415E5,7.367781E4,3.4609656E4,1.3817652E5,2.845275E4,1.6894006E5,5.347186E4,1.15910375E5,8.694006E4,6.2259266E4,2.62335E4,2.7332375E4,3.2840297E4,1.9573887E4,8.979016E4,2.3296883E4,1.30179375E4,3.5994207E4,9.091669E4,6.1008195E4,4.348603E4,2.5115037E4,3.1800281E4,1.1388531E5,0E0,0E0,0E0,0E0,0E0,0E0,0E0,0E0,0E0,0E0,0E0,0E0,0E0,0E0,0E0,0E0,0E0,0E0,0E0,0E0,0E0,0E0,0E0,0E0,0E0,0E0,0E0,0E0,0E0,0E0,0E0,0E0],"parents":[2147483647,0,0,1,1,2,2,3,3,4,4,5,5,6,6,7,7,8,8,9,9,10,10,11,11,12,12,13,13,14,14,15,15,16,16,17,17,18,18,19,19,20,20,21,21,22,22,23,23,24,24,25,25,26,26,27,27,28,28,29,29,30,30],"right_children":[2,4,6,8,10,12,14,16,18,20,22,24,26,28,30,32,34,36,38,40,42,44,46,48,50,52,54,56,58,60,62,-1,-1,-1,-1,-1,-1,-1,-1,-1,-1,-1,-1,-1,-1,-1,-1,-1,-1,-1,-1,-1,-1,-1,-1,-1,-1,-1,-1,-1,-1,-1,-1],"split_conditions":[-2.5881904E-1,1.01E1,5E-1,0E0,2.5881904E-1,6.123234E-17,7.8E0,6.123234E-17,6.7090473E0,1.156E3,2.36E1,1.156E3,3.67E2,1.15078E1,9.659258E-1,1.14E2,3.2E0,2.5881904E-1,1.3418095E1,-2.5881904E-1,4.61E2,1.15078E1,3.5E1,-8.660254E-1,1.236E3,-2.4492937E-16,-5E-1,9.659258E-1,7.88E2,1.64E1,1.0287973E1,5.725276E-3,-3.4197744E-2,3.1784773E-2,9.955629E-3,2.5552645E-2,4.0305443E-2,2.2130046E-2,-2.214221E-3,-3.8297366E-2,-1.734103E-2,-1.8709479E-2,4.254764E-2,1.8468158E-2,-1.7120134E-2,-1.2056889E-2,-3.8138285E-2,-3.415799E-2,-4.813361E-2,4.212501E-2,-4.101924E-2,-4.3193277E-2,-1.5486725E-2,-3.925638E-2,1.5521918E-2,1.49336755E-2,3.3258174E-2,-1.01842955E-2,4.897018E-2,-2.389877E-2,-4.632729E-2,2.2022433E-3,-3.2532457E-2],"split_indices":[6,0,5,5,5,8,0,8,1,4,0,4,4,1,5,4,0,5,1,5,9,1,0,7,4,7,7,5,4,0,1,0,0,0,0,0,0,0,0,0,0,0,0,0,0,0,0,0,0,0,0,0,0,0,0,0,0,0,0,0,0,0,0],"split_type":[0,0,0,0,0,0,0,0,0,0,0,0,0,0,0,0,0,0,0,0,0,0,0,0,0,0,0,0,0,0,0,0,0,0,0,0,0,0,0,0,0,0,0,0,0,0,0,0,0,0,0,0,0,0,0,0,0,0,0,0,0,0,0],"sum_hessian":[1.348253E7,6.933133E6,6.5493975E6,4.299388E6,2.6337448E6,3.1475105E6,3.4018868E6,1.8953724E6,2.4040158E6,8.1520075E5,1.818544E6,1.1963389E6,1.9511718E6,1.4877266E6,1.9141602E6,5.8372656E5,1.3116459E6,1.5703738E6,8.33642E5,7.6233206E5,5.286867E4,1.4038589E6,4.1468506E5,1.14151E6,5.4828887E4,1.4269266E6,5.2424503E5,1.2952821E6,1.9244448E5,6.705469E5,1.2436134E6,2.1714656E5,3.6658E5,6.966419E5,6.1500394E5,4.066336E5,1.1637401E6,6.9542844E5,1.3821353E5,3.2851853E5,4.338135E5,2.337687E4,2.9491803E4,1.1957816E6,2.0807728E5,2.9386147E5,1.2082358E5,2.0258919E5,9.3892075E5,2.1260047E4,3.356884E4,4.192937E5,1.007633E6,5.703279E4,4.6721225E5,6.390247E5,6.5625744E5,1.7241814E5,2.002634E4,4.1548194E5,2.5506494E5,9.2704875E5,3.165646E5],"tree_param":{"num_deleted":"0","num_feature":"10","num_nodes":"63","size_leaf_vector":"1"}},{"base_weights":[-4.069663E-4,1.5820374E-1,-3.3168548E-1,2.558058E-1,-3.3497995E-1,1.3032216E-2,-4.9036536E-1,-3.5014635E-1,3.641843E-1,-1.8148059E-1,-7.007689E-1,-4.0114903E-1,3.8859332E-1,-5.9515893E-1,-8.6723484E-2,-6.566648E-1,1.0375997E-1,2.7826878E-1,7.6473135E-1,5.5323586E-2,-4.257605E-1,-6.081186E-1,-9.538421E-1,-5.3461504E-1,3.1864604E-1,1.2983666E-1,5.269023E-1,-7.6479197E-1,-3.6645815E-1,9.022839E-2,-5.120323E-1,-3.9234664E-2,3.0741645E-3,-4.5760516E-3,3.246347E-2,2.5930459E-2,6.645498E-3,3.4917925E-2,5.2137967E-2,-4.197828E-2,6.6213855E-3,-2.738738E-2,1.6462029E-3,-2.165635E-2,-3.8630232E-2,8.093944E-2,-4.836724E-2,-3.518056E-2,-4.5429855E-3,-2.7990068E-4,3.935444E-2,-2.2727305E-2,1.3287753E-2,1.3659124E-2,3.084747E-2,-4.707606E-2,-2.872844E-2,-3.4742404E-3,-3.143701E-2,-5.1484243E-3,2.4489444E-2,-9.3286525E-4,-3.6465276E-2],"categories":[],"categories_nodes":[],"categories_segments":[],"categories_sizes":[],"default_left":[0,0,0,0,0,0,0,0,0,0,0,0,0,0,0,0,0,0,0,0,0,0,0,0,0,0,0,0,0,0,0,0,0,0,0,0,0,0,0,0,0,0,0,0,0,0,0,0,0,0,0,0,0,0,0,0,0,0,0,0,0,0,0],"id":20,"left_children":[1,3,5,7,9,11,13,15,17,19,21,23,25,27,29,31,33,35,37,39,41,43,45,47,49,51,53,55,57,59,61,-1,-1,-1,-1,-1,-1,-1,-1,-1,-1,-1,-1,-1,-1,-1,-1,-1,-1,-1,-1,-1,-1,-1,-1,-1,-1,-1,-1,-1,-1,-1,-1],"loss_changes":[7.032425E5,4.356548E5,2.3702784E5,4.9617506E5,8.3953766E4,2.1246933E5,1.2551544E5,1.594852E5,2.2055519E5,6.092615E4,1.0362656E4,6.240239E4,2.5637234E4,9.139106E4,4.6028426E4,6.2911312E4,4.9222234E4,1.8435919E5,2.0887125E4,3.6901332E4,2.9008352E4,9.312219E3,4.1159844E3,4.109297E4,1.5432655E4,1.9819791E4,1.0665391E4,4.5468812E4,7.814056E4,3.3340348E4,1.9262832E4,0E0,0E0,0E0,0E0,0E0,0E0,0E0,0E0,0E0,0E0,0E0,0E0,0E0,0E0,0E0,0E0,0E0,0E0,0E0,0E0,0E0,0E0,0E0,0E0,0E0,0E0,0E0,0E0,0E0,0E0,0E0,0E0],"parents":[2147483647,0,0,1,1,2,2,3,3,4,4,5,5,6,6,7,7,8,8,9,9,10,10,11,11,12,12,13,13,14,14,15,15,16,16,17,17,18,18,19,19,20,20,21,21,22,22,23,23,24,24,25,25,26,26,27,27,28,28,29,29,30,30],"right_children":[2,4,6,8,10,12,14,16,18,20,22,24,26,28,30,32,34,36,38,40,42,44,46,48,50,52,54,56,58,60,62,-1,-1,-1,-1,-1,-1,-1,-1,-1,-1,-1,-1,-1,-1,-1,-1,-1,-1,-1,-1,-1,-1,-1,-1,-1,-1,-1,-1,-1,-1,-1,-1],"split_conditions":[2.5881904E-1,1.81E1,2.3E0,-7.0710677E-1,2.9E1,0E0,4.0944E2,8.660254E-1,4.05E2,-2.4492937E-16,4.29E1,4.86E2,5E-1,7.0710677E-1,1.44E1,4.86E2,3.67E2,4.1E0,1.156E3,-2.5881904E-1,4.0944E2,1.2246469E-16,7E0,1.2246469E-16,5.7539E0,-1.8369701E-16,9.9E1,5E-1,1.1E1,7.0710677E-1,-4.848096E-1,-3.9234664E-2,3.0741645E-3,-4.5760516E-3,3.246347E-2,2.5930459E-2,6.645498E-3,3.4917925E-2,5.2137967E-2,-4.197828E-2,6.6213855E-3,-2.738738E-2,1.6462029E-3,-2.165635E-2,-3.8630232E-2,8.093944E-2,-4.836724E-2,-3.518056E-2,-4.5429855E-3,-2.7990068E-4,3.935444E-2,-2.2727305E-2,1.3287753E-2,1.3659124E-2,3.084747E-2,-4.707606E-2,-2.872844E-2,-3.4742404E-3,-3.143701E-2,-5.1484243E-3,2.4489444E-2,-9.3286525E-4,-3.6465276E-2],"split_indices":[6,0,0,5,0,5,4,8,4,7,0,4,5,5,0,4,4,0,4,5,4,7,9,2,1,8,4,8,0,5,3,0,0,0,0,0,0,0,0,0,0,0,0,0,0,0,0,0,0,0,0,0,0,0,0,0,0,0,0,0,0,0,0],"split_type":[0,0,0,0,0,0,0,0,0,0,0,0,0,0,0,0,0,0,0,0,0,0,0,0,0,0,0,0,0,0,0,0,0,0,0,0,0,0,0,0,0,0,0,0,0,0,0,0,0,0,0,0,0,0,0,0,0,0,0,0,0,0,0],"sum_hessian":[1.3383794E7,9.050543E6,4.3332505E6,7.5553285E6,1.4952145E6,1.3659179E6,2.9673328E6,1.1462968E6,6.409032E6,1.0532366E6,4.4197788E5,6.4956075E5,7.163572E5,2.3557355E6,6.115971E5,6.842375E5,4.6205925E5,5.2771165E6,1.1319155E6,5.34802E5,5.184346E5,3.235349E5,1.1844298E5,5.479575E5,1.0160326E5,2.4952783E5,4.6682934E5,1.3525291E6,1.0032064E6,4.3190262E5,1.796945E5,5.807106E5,1.0352686E5,3.4025562E5,1.218036E5,1.988791E6,3.2883255E6,9.1377575E5,2.1813975E5,4.2422805E4,4.9237922E5,4.0952206E5,1.0891251E5,1.5676316E5,1.6677175E5,6.177902E2,1.1782519E5,3.96831E5,1.5112647E5,6.0043605E4,4.1559652E4,4.708462E4,2.024432E5,1.2228336E5,3.44546E5,7.0113075E5,6.5139844E5,4.7048872E5,5.327176E5,2.911335E5,1.4076914E5,5.4940043E4,1.2475446E5],"tree_param":{"num_deleted":"0","num_feature":"10","num_nodes":"63","size_leaf_vector":"1"}},{"base_weights":[-4.2637027E-4,1.7871739E-1,-2.702407E-1,3.18292E-1,-1.4491911E-1,-4.8702398E-1,-4.9310077E-2,4.505501E-2,5.217612E-1,1.9300844E-1,-3.1155148E-1,-8.294938E-1,-2.7898863E-1,3.7546012E-1,-3.4982073E-1,-4.6239737E-1,2.810818E-1,6.405067E-1,2.2643337E-1,3.6165163E-1,-2.4409384E-1,-7.792667E-1,-2.3038177E-1,-8.6243963E-1,-1.5532064E-1,-7.128633E-1,-1.0830091E-1,5.449303E-1,1.9012433E-1,-2.0033136E-1,-6.873534E-1,-1.7563257E-3,-3.50581E-2,2.2531575E-2,-4.347285E-3,1.998358E-2,3.5307862E-2,1.6456429E-2,-6.781403E-3,-2.9448614E-2,2.1727491E-2,-4.668593E-3,-3.355039E-2,-5.0621387E-2,-2.1748489E-2,-6.3527985E-3,-3.3522077E-2,-3.1811055E-2,-4.5600396E-2,3.981646E-2,-3.7231315E-2,-3.8255256E-2,9.909016E-3,-1.4693613E-2,1.6448705E-2,3.1591434E-2,1.4838262E-2,2.7136279E-3,2.5127014E-2,-1.8028831E-2,9.828321E-3,-4.652862E-2,-2.6373649E-2],"categories":[],"categories_nodes":[],"categories_segments":[],"categories_sizes":[],"default_left":[0,0,0,0,0,0,0,0,0,0,0,0,0,0,0,0,0,0,0,0,0,0,0,0,0,0,0,0,0,0,0,0,0,0,0,0,0,0,0,0,0,0,0,0,0,0,0,0,0,0,0,0,0,0,0,0,0,0,0,0,0,0,0],"id":21,"left_children":[1,3,5,7,9,11,13,15,17,19,21,23,25,27,29,31,33,35,37,39,41,43,45,47,49,51,53,55,57,59,61,-1,-1,-1,-1,-1,-1,-1,-1,-1,-1,-1,-1,-1,-1,-1,-1,-1,-1,-1,-1,-1,-1,-1,-1,-1,-1,-1,-1,-1,-1,-1,-1],"loss_changes":[6.425755E5,3.608948E5,2.5405925E5,3.1033688E5,1.355587E5,1.9075588E5,3.3535375E5,2.8536462E5,1.12203125E5,5.8606227E4,6.1211E4,2.2473125E4,1.233521E5,3.4189625E4,7.763586E4,7.7162984E4,1.0147229E5,3.6080062E4,3.4115953E4,3.9756914E4,1.424249E4,1.9140188E4,6.2470617E4,1.0816375E4,2.6438727E4,2.2382125E4,9.699957E4,1.2261875E4,2.2067064E4,6.7821766E4,1.8364547E4,0E0,0E0,0E0,0E0,0E0,0E0,0E0,0E0,0E0,0E0,0E0,0E0,0E0,0E0,0E0,0E0,0E0,0E0,0E0,0E0,0E0,0E0,0E0,0E0,0E0,0E0,0E0,0E0,0E0,0E0,0E0,0E0],"parents":[2147483647,0,0,1,1,2,2,3,3,4,4,5,5,6,6,7,7,8,8,9,9,10,10,11,11,12,12,13,13,14,14,15,15,16,16,17,17,18,18,19,19,20,20,21,21,22,22,23,23,24,24,25,25,26,26,27,27,28,28,29,29,30,30],"right_children":[2,4,6,8,10,12,14,16,18,20,22,24,26,28,30,32,34,36,38,40,42,44,46,48,50,52,54,56,58,60,62,-1,-1,-1,-1,-1,-1,-1,-1,-1,-1,-1,-1,-1,-1,-1,-1,-1,-1,-1,-1,-1,-1,-1,-1,-1,-1,-1,-1,-1,-1,-1,-1],"split_conditions":[-1.8369701E-16,1.27E1,5E-1,0E0,-5E-1,6.123234E-17,6.9E0,6.123234E-17,8.05546E0,2.36E1,-2.5881904E-1,1.156E3,-2.4492937E-16,2.3E0,1.89E1,1.14E2,5.2E0,2.5881904E-1,1.3418095E1,-2.5881904E-1,3.7E1,5E-1,2.8E1,-8.660254E-1,1.236E3,1.156E3,3.57E2,6.9392033E0,3.0609E2,3.0609E2,9.659258E-1,-1.7563257E-3,-3.50581E-2,2.2531575E-2,-4.347285E-3,1.998358E-2,3.5307862E-2,1.6456429E-2,-6.781403E-3,-2.9448614E-2,2.1727491E-2,-4.668593E-3,-3.355039E-2,-5.0621387E-2,-2.1748489E-2,-6.3527985E-3,-3.3522077E-2,-3.1811055E-2,-4.5600396E-2,3.981646E-2,-3.7231315E-2,-3.8255256E-2,9.909016E-3,-1.4693613E-2,1.6448705E-2,3.1591434E-2,1.4838262E-2,2.7136279E-3,2.5127014E-2,-1.8028831E-2,9.828321E-3,-4.652862E-2,-2.6373649E-2],"split_indices":[6,0,5,5,7,8,0,8,1,0,5,4,7,0,0,4,0,5,1,5,0,8,0,7,4,4,4,1,4,4,5,0,0,0,0,0,0,0,0,0,0,0,0,0,0,0,0,0,0,0,0,0,0,0,0,0,0,0,0,0,0,0,0],"split_type":[0,0,0,0,0,0,0,0,0,0,0,0,0,0,0,0,0,0,0,0,0,0,0,0,0,0,0,0,0,0,0,0,0,0,0,0,0,0,0,0,0,0,0,0,0,0,0,0,0,0,0,0,0,0,0,0,0,0,0,0,0,0,0],"sum_hessian":[1.3294054E7,7.9894455E6,5.3046085E6,5.5820685E6,2.407377E6,2.677434E6,2.6271745E6,2.3825562E6,3.1995125E6,7.950431E5,1.6123339E6,1.0117984E6,1.6656355E6,1.0885354E6,1.538639E6,7.5637206E5,1.6261841E6,2.2819745E6,9.175381E5,5.7369844E5,2.2134466E5,2.3843244E5,1.3739014E6,9.646568E5,4.7141547E4,4.7026244E5,1.1953731E6,5.686043E5,5.1993103E5,1.0663614E6,4.7227772E5,2.711495E5,4.852226E5,1.113292E6,5.1289216E5,4.888102E5,1.7931641E6,7.147939E5,2.027442E5,4.0859945E4,5.328385E5,1.6359031E5,5.775435E4,1.4215908E5,9.627336E4,1.1126525E6,2.6124895E5,1.73384E5,7.912728E5,1.8028146E4,2.91134E4,4.4475888E5,2.5503555E4,8.392229E5,3.5615025E5,4.2113616E5,1.4746812E5,3.623618E5,1.575692E5,7.59655E5,3.0670634E5,1.8731652E5,2.849612E5],"tree_param":{"num_deleted":"0","num_feature":"10","num_nodes":"63","size_leaf_vector":"1"}},{"base_weights":[-4.2859412E-4,2.0478375E-1,-2.188411E-1,4.0104404E-1,-2.3584845E-2,-4.0573862E-1,7.6127276E-2,1.9794708E-1,5.775144E-1,-3.8523483E-1,1.5600652E-1,-6.870768E-1,-1.6275606E-1,3.1274205E-1,-3.697145E-1,-3.369351E-1,4.279373E-1,6.950914E-1,3.4703922E-1,-4.3740416E-1,4.2485514E-1,2.7437246E-1,-3.411295E-1,-7.872699E-1,-2.4478552E-1,-5.568433E-1,3.2783814E-2,5.0184697E-1,-2.6471613E-2,-2.4265121E-1,-8.6893827E-1,7.3222937E-3,-3.1259093E-2,9.781803E-3,2.8364945E-2,2.5709724E-2,3.8168836E-2,1.3106564E-2,3.5934456E-2,-6.5383813E-3,-2.8241882E-2,-1.0114535E-2,4.4930767E-2,2.2396818E-2,-2.1266767E-3,-1.0107139E-2,-3.469064E-2,-2.9960046E-2,-4.3472867E-2,-1.4749827E-3,-3.6880136E-2,-3.6333248E-2,-1.0027555E-2,1.1225308E-2,-1.7007286E-2,1.0621951E-2,3.0194337E-2,-7.0417426E-3,2.9463524E-2,4.047561E-3,-2.2140257E-2,-4.6257265E-2,2.2512069E-2],"categories":[],"categories_nodes":[],"categories_segments":[],"categories_sizes":[],"default_left":[0,0,0,0,0,0,0,0,0,0,0,0,0,0,0,0,0,0,0,0,0,0,0,0,0,0,0,0,0,0,0,0,0,0,0,0,0,0,0,0,0,0,0,0,0,0,0,0,0,0,0,0,0,0,0,0,0,0,0,0,0,0,0],"id":22,"left_children":[1,3,5,7,9,11,13,15,17,19,21,23,25,27,29,31,33,35,37,39,41,43,45,47,49,51,53,55,57,59,61,-1,-1,-1,-1,-1,-1,-1,-1,-1,-1,-1,-1,-1,-1,-1,-1,-1,-1,-1,-1,-1,-1,-1,-1,-1,-1,-1,-1,-1,-1,-1,-1],"loss_changes":[5.915082E5,3.0496125E5,3.5243647E5,1.3115281E5,2.0425511E5,2.6751906E5,2.6157852E5,2.092926E5,5.3059438E4,4.410053E4,1.2365131E5,8.0366375E4,1.6181203E5,1.0391095E5,5.4533062E4,7.127898E4,3.8516688E4,1.6015625E4,2.0872531E4,3.8308562E4,1.8758828E4,9.335388E4,1.9808402E4,2.2854E4,3.553715E4,4.2134625E4,1.0034553E5,3.0714312E4,4.082996E4,4.4385934E4,1.2933031E4,0E0,0E0,0E0,0E0,0E0,0E0,0E0,0E0,0E0,0E0,0E0,0E0,0E0,0E0,0E0,0E0,0E0,0E0,0E0,0E0,0E0,0E0,0E0,0E0,0E0,0E0,0E0,0E0,0E0,0E0,0E0,0E0],"parents":[2147483647,0,0,1,1,2,2,3,3,4,4,5,5,6,6,7,7,8,8,9,9,10,10,11,11,12,12,13,13,14,14,15,15,16,16,17,17,18,18,19,19,20,20,21,21,22,22,23,23,24,24,25,25,26,26,27,27,28,28,29,29,30,30],"right_children":[2,4,6,8,10,12,14,16,18,20,22,24,26,28,30,32,34,36,38,40,42,44,46,48,50,52,54,56,58,60,62,-1,-1,-1,-1,-1,-1,-1,-1,-1,-1,-1,-1,-1,-1,-1,-1,-1,-1,-1,-1,-1,-1,-1,-1,-1,-1,-1,-1,-1,-1,-1,-1],"split_conditions":[-2.5881904E-1,8.1E0,8.660254E-1,0E0,2.5881904E-1,5E-1,1.49E1,6.123234E-17,6.7090473E0,1.156E3,2.36E1,4.62E2,-2.4492937E-16,8.05546E0,1.1185581E1,1.14E2,8.660254E-1,2.5881904E-1,3.87E2,9.2E1,4.61E2,8.05546E0,3.5E1,2.1E0,1.2E1,1.2246469E-16,5.2E0,1.02E2,4.62E2,-5E-1,1.156E3,7.3222937E-3,-3.1259093E-2,9.781803E-3,2.8364945E-2,2.5709724E-2,3.8168836E-2,1.3106564E-2,3.5934456E-2,-6.5383813E-3,-2.8241882E-2,-1.0114535E-2,4.4930767E-2,2.2396818E-2,-2.1266767E-3,-1.0107139E-2,-3.469064E-2,-2.9960046E-2,-4.3472867E-2,-1.4749827E-3,-3.6880136E-2,-3.6333248E-2,-1.0027555E-2,1.1225308E-2,-1.7007286E-2,1.0621951E-2,3.0194337E-2,-7.0417426E-3,2.9463524E-2,4.047561E-3,-2.2140257E-2,-4.6257265E-2,2.2512069E-2],"split_indices":[6,0,5,5,5,8,0,8,1,4,0,4,7,1,1,4,8,5,4,4,9,1,0,0,0,5,0,4,4,7,4,0,0,0,0,0,0,0,0,0,0,0,0,0,0,0,0,0,0,0,0,0,0,0,0,0,0,0,0,0,0,0,0],"split_type":[0,0,0,0,0,0,0,0,0,0,0,0,0,0,0,0,0,0,0,0,0,0,0,0,0,0,0,0,0,0,0,0,0,0,0,0,0,0,0,0,0,0,0,0,0,0,0,0,0,0,0,0,0,0,0,0,0,0,0,0,0,0,0],"sum_hessian":[1.3197137E7,6.80418E6,6.3929565E6,3.6593388E6,3.1448412E6,3.913371E6,2.4795858E6,1.7013192E6,1.9580194E6,1.0435015E6,2.1013398E6,1.8135472E6,2.0998238E6,1.6198878E6,8.5969794E5,5.115712E5,1.1897481E6,1.2965709E6,6.614485E5,9.803669E5,6.313461E4,1.6972359E6,4.0410403E5,1.478597E6,3.3495022E5,6.963705E5,1.4034534E6,1.04006925E6,5.7981844E5,6.852806E5,1.744173E5,1.9110105E5,3.2047012E5,4.4611812E5,7.4362994E5,3.5531134E5,9.4125956E5,5.3843756E5,1.2301095E5,2.878149E5,6.9255194E5,2.716938E4,3.5965227E4,1.0966301E6,6.006057E5,2.8987184E5,1.1423219E5,4.4965756E5,1.0289395E6,2.3311542E5,1.0183479E5,4.715918E5,2.2477867E5,9.2692394E5,4.765294E5,2.7111856E5,7.689507E5,4.8899672E5,9.082175E4,2.6188078E5,4.2339984E5,1.672898E5,7.1275073E3],"tree_param":{"num_deleted":"0","num_feature":"10","num_nodes":"63","size_leaf_vector":"1"}},{"base_weights":[-4.2655139E-4,1.3995333E-1,-2.958218E-1,-3.6097443E-1,2.1852617E-1,-9.4451286E-2,-5.341323E-1,-6.352013E-1,6.272886E-2,3.8313863E-1,-1.1262288E-1,-3.7695378E-1,2.6242444E-1,-6.6759664E-1,-2.966659E-1,-7.192912E-1,1.6382039E-1,3.6854252E-1,-2.585195E-1,3.0711725E-1,7.426435E-1,2.116845E-1,-2.791713E-1,-7.5290275E-1,-1.6791297E-1,5.293082E-1,1.1180442E-1,-7.137445E-1,8.7957576E-2,-1.3167712E-1,-6.882552E-1,-4.4331197E-2,-2.3188109E-2,3.7903957E-2,-1.6047474E-2,1.3470853E-2,5.253687E-2,-2.4717595E-2,1.7043235E-2,6.311158E-3,2.2537405E-2,3.354982E-2,5.1695287E-2,1.6354008E-2,-1.8488796E-2,-1.8893352E-2,5.8492958E-3,-3.9471947E-2,1.4416176E-2,-1.8471451E-2,1.2429552E-2,1.97928E-2,3.338627E-2,-1.0518441E-3,1.9933863E-2,-4.5318376E-2,-2.8062323E-2,4.7937628E-2,-1.7957166E-2,1.3695342E-2,-1.6518395E-2,-2.683561E-2,-4.4508826E-2],"categories":[],"categories_nodes":[],"categories_segments":[],"categories_sizes":[],"default_left":[0,0,0,0,0,0,0,0,0,0,0,0,0,0,0,0,0,0,0,0,0,0,0,0,0,0,0,0,0,0,0,0,0,0,0,0,0,0,0,0,0,0,0,0,0,0,0,0,0,0,0,0,0,0,0,0,0,0,0,0,0,0,0],"id":23,"left_children":[1,3,5,7,9,11,13,15,17,19,21,23,25,27,29,31,33,35,37,39,41,43,45,47,49,51,53,55,57,59,61,-1,-1,-1,-1,-1,-1,-1,-1,-1,-1,-1,-1,-1,-1,-1,-1,-1,-1,-1,-1,-1,-1,-1,-1,-1,-1,-1,-1,-1,-1,-1,-1],"loss_changes":[5.4339706E5,3.4962116E5,2.0257703E5,1.3993958E5,4.1855978E5,2.3067289E5,6.1274E4,4.912725E4,4.6490715E4,1.4017225E5,1.377079E5,1.00363484E5,4.0637406E4,4.3155438E4,4.494356E4,2.8286312E4,2.0057113E4,1.6394E4,3.2623154E4,1.09997875E5,1.8681406E4,5.804416E4,6.586133E4,1.7360953E4,6.888539E4,6.736625E3,2.4626746E4,3.4263938E4,2.7738916E4,3.9441047E4,6.3095234E3,0E0,0E0,0E0,0E0,0E0,0E0,0E0,0E0,0E0,0E0,0E0,0E0,0E0,0E0,0E0,0E0,0E0,0E0,0E0,0E0,0E0,0E0,0E0,0E0,0E0,0E0,0E0,0E0,0E0,0E0,0E0,0E0],"parents":[2147483647,0,0,1,1,2,2,3,3,4,4,5,5,6,6,7,7,8,8,9,9,10,10,11,11,12,12,13,13,14,14,15,15,16,16,17,17,18,18,19,19,20,20,21,21,22,22,23,23,24,24,25,25,26,26,27,27,28,28,29,29,30,30],"right_children":[2,4,6,8,10,12,14,16,18,20,22,24,26,28,30,32,34,36,38,40,42,44,46,48,50,52,54,56,58,60,62,-1,-1,-1,-1,-1,-1,-1,-1,-1,-1,-1,-1,-1,-1,-1,-1,-1,-1,-1,-1,-1,-1,-1,-1,-1,-1,-1,-1,-1,-1,-1,-1],"split_conditions":[2.5881904E-1,-7.0710677E-1,6E0,8.660254E-1,1.27E1,1.2246469E-16,8.660254E-1,7.88E2,3.2E0,4.05E2,-5E-1,6.123234E-17,1.4E0,1.156E3,1.89E1,8.660254E-1,5.2E0,7.16E2,3.67E2,2.5881904E-1,1.156E3,2.8E1,4.0944E2,1.156E3,1.2246469E-16,8.660254E-1,3.0609E2,0E0,-4.848096E-1,-5E-1,6.9392033E0,-4.4331197E-2,-2.3188109E-2,3.7903957E-2,-1.6047474E-2,1.3470853E-2,5.253687E-2,-2.4717595E-2,1.7043235E-2,6.311158E-3,2.2537405E-2,3.354982E-2,5.1695287E-2,1.6354008E-2,-1.8488796E-2,-1.8893352E-2,5.8492958E-3,-3.9471947E-2,1.4416176E-2,-1.8471451E-2,1.2429552E-2,1.97928E-2,3.338627E-2,-1.0518441E-3,1.9933863E-2,-4.5318376E-2,-2.8062323E-2,4.7937628E-2,-1.7957166E-2,1.3695342E-2,-1.6518395E-2,-2.683561E-2,-4.4508826E-2],"split_indices":[6,5,0,8,0,5,5,4,0,4,7,8,0,4,0,7,0,4,4,5,4,0,4,4,2,8,4,2,3,7,1,0,0,0,0,0,0,0,0,0,0,0,0,0,0,0,0,0,0,0,0,0,0,0,0,0,0,0,0,0,0,0,0],"split_type":[0,0,0,0,0,0,0,0,0,0,0,0,0,0,0,0,0,0,0,0,0,0,0,0,0,0,0,0,0,0,0,0,0,0,0,0,0,0,0,0,0,0,0,0,0,0,0,0,0,0,0,0,0,0,0,0,0,0,0,0,0,0,0],"sum_hessian":[1.3104151E7,8.882802E6,4.221349E6,1.2043934E6,7.678408E6,2.2880045E6,1.9333445E6,7.311695E5,4.7322384E5,5.1288725E6,2.549536E6,1.277074E6,1.0109306E6,1.2377078E6,6.9563675E5,6.6154756E5,6.962189E4,2.4243589E5,2.3078795E5,4.233626E6,8.952465E5,8.650628E5,1.684473E6,4.5634994E5,8.20724E5,3.6470572E5,6.4622494E5,1.1664625E6,7.124534E4,4.8942716E5,2.0620958E5,3.997618E5,2.6178577E5,3.127843E4,3.834346E4,2.1167945E5,3.0756426E4,1.6562262E5,6.5165336E4,1.8737529E6,2.359873E6,7.185059E5,1.7674062E5,7.2181344E5,1.432494E5,1.3485141E6,3.3595897E5,4.408799E5,1.5470042E4,5.5311294E5,2.6761106E5,1.8568506E5,1.7902066E5,4.4169262E5,2.0453231E5,5.1542075E5,6.510417E5,2.416985E4,4.7075496E4,1.6092777E5,3.2849938E5,1.178021E5,8.840748E4],"tree_param":{"num_deleted":"0","num_feature":"10","num_nodes":"63","size_leaf_vector":"1"}},{"base_weights":[-4.3327763E-4,1.3373457E-1,-2.8356662E-1,2.0106688E-1,-4.0853745E-1,-5.0509775E-1,-8.011066E-2,-2.1834593E-1,3.1337604E-1,-2.6053134E-1,-6.82852E-1,-6.178375E-1,-6.221938E-2,1.1842399E-1,-3.6936206E-1,-6.279886E-1,5.373265E-2,3.9507684E-1,-7.302838E-2,-7.201727E-1,-1.769128E-1,-8.426071E-1,-5.1652277E-1,-8.079954E-1,-4.1934565E-1,-3.4383452E-1,2.53924E-1,-1.1436561E-1,3.7866977E-1,-6.653166E-1,-1.3842563E-1,-3.715361E-2,7.9274917E-4,-1.7339766E-2,1.21169165E-2,1.494762E-2,3.3042338E-2,-6.2148315E-3,4.7416206E-2,-3.878234E-2,-1.2548909E-2,-1.4078776E-2,1.5120513E-2,4.6419617E-2,-4.265297E-2,-7.793434E-3,-3.1246219E-2,-3.299764E-2,-4.452264E-2,-3.3470902E-3,-3.1245733E-2,-2.6377572E-2,7.896047E-3,2.5566334E-2,-3.882179E-2,-3.0864744E-2,5.676511E-3,2.9080871E-2,1.1427461E-2,-3.5392456E-2,1.7667687E-2,-8.864815E-3,2.30097E-2],"categories":[],"categories_nodes":[],"categories_segments":[],"categories_sizes":[],"default_left":[0,0,0,0,0,0,0,0,0,0,0,0,0,0,